featureid,00056bcaf3eb04f1d988da98936bc1d5,01678bcea2b58f4934ca047a3d8d6b97,01bd3fe94455ce451ccbe6fc57069261,031bc75c4d162ff7bc8bf302eb73565d,034640392fd761ca55a00036940c73c1,048321e811e39faa7203a044f5b374ce,049e9985c738df5d534704373d2e90e9,060045d7682d9df6168c3146fa0967e4,070509adb6a8c7f66ceb5a3c5a981c8a,08029cb9a88951ea50b93d0a9e210af2,086585ab0654c55c3536a3b17977f340,0a1775972227f8203c8b7601b5ee5af7,0a2a1ed7a26ad20fd32c3f112f9bce81,0a823fd294075990a4080100d7562a1c,0abdb5e26045c78f084f4bf2713cbf33,0aeb72e1e54285fe1d3b4d69cc774cf8,0aeec48b8fb67093bcb47a844c91d0d4,0b162ce62286b5bc182e903c1c51c58d,0b21d80d1f89bc30d915fff4b7741731,0b820f96dda41afd6d433a7b1234de94,0cdef895b9b57b30365ccfea3fb0fb98,0cf57c36f015582c5f41d85dc63678ed,0eca354b66484f0c52da116f1ebe0bfa,100e039fcf15e05226be0a807cbcc627,10d48e390e0a1f0ae7fbe497f944e4b7,10e5a1737cf7d95a92d51a5f3ce99add,11725fa1ccba01e0b421521a8278c4e9,12ad92c33b307bfdf509d684b9f2fa14,1357c3aa1b8ab3debd38b96ad1787d01,136e611a944d1af7eaebbf8d555b5f55,14530046d9e990a2f0fa52bc532003ad,1492f7055396c89a9efba8282da334d4,1505a548e433fc399176c1c4732713e0,166e73cc80d4042d1f4c923db56fd924,16abf950398f5c26d7a83e2c47c35c20,1925d431b9d4df59043f52983e747671,19a1c46bcf07a0eab8525e09a1844112,19e33db1ab79a4d1f264333c5a983b79,1a54c02a87b572e73564f6ce8182e192,1b36dcb100265ef492b2651e68fdca1e,1b9b2c29f601cda27b52316d150b10f1,1cc57818dc10dfbe0c44cf2c3ccd5714,1e38bcce11dfc0a55620c4f6a317b547,1e3c86d80976aef669c18da7b4a5e1ef,2041447fd98a70ab535e2ce40ef988a3,2055eb26eb5fe3d4fac2d9b51366bb0d,2160a557aebea67b49d2aa57a5e6902f,219ae21f321364e8fb2f83d82fe9b22a,2263102ff78929e8965a650c276b888e,2275abcf0f25a863d6174c7ac165e759,228e5bdfe0aa709095a2f688724d7767,23535f66a867a6ccd6da626a0f31dd5c,23e2400d78108ea874d84eb112b65afe,243613790fd8a0b13a6e0e96836a7e49,258d835a10d9c7672cbc055dc882d683,260d08fee1d28cb66e73473a07389044,2614f8181d199e0a2344bc4cacd5bbe6,26bd75b4b7bd76cf582f304494bf1e1a,26d5b41dd48776484c863a05faf3f2b1,27319161c39e618a5b57f48b4510a903,2803b661df0847eb6087dc3fecc1c0fa,285c246210326467cebf973e39de4c4b,29d9a136c40bdbb509e14f268488370f,2a4811d4964e4798ff7257e923c29999,2acf6baf2e29c18e8fb33ed9007dbcc7,2beb56080cfe7c5c819243a9e09b11ea,2cb9fbacc5946fa230b27bfbe5abb9a1,2d392ae3b96f626203ee9f01d24191d5,2dc5a0dbfb6613825e45889bd6bfda05,2ddf1b25e0c80aa24f2024379724d09d,2fcac9963357a409f986235e5799fa7e,30273a01e2f871752acf1dfd9364b74e,30c48a661e051c9f7022f881c8ee2761,31d55184a3e695a53d74c0d606658577,31ed1d03be907717199d50b9a58046d3,32facb1052b679b352451d2d29f72bb4,33cdb2d178b58cef3aa31442c484bdeb,33f990efec41e9a54193446b0ec2e0b6,34833c5e758825dfd60240fa8ce2ee50,34a35d1c9e1446100a5fab7b24ab8181,34f6fc954d993f90ccbc3c490e09b54b,351689a6518d0ff0dcdcf0c8d4716821,354fad405f5e1dde1fe20ce6c6d8f5bf,35a0eb4b2b5be01f38f5a692222650cb,35c908e555dfb3ab221f68183fd21d5b,36bcf44850a9abaa03ef2ee725ec765e,376e40d97ea420be2d8a068ae67dd841,380f2e9d54af3c7fd8090503d65306e7,389311edfac9459fc972d6c746eb20dc,395a6718d9bc2fc3c78ca504e45cc56a,3b69b863dfbd59dde298719e7f978281,3bef82ecab49f45ea30d57a4c26ef5c6,3c88917286cd7791afc8f91df91fb4ec,3ce427fa47c24e12eef69c9fd86191e4,3d3670c019e3d375675001f846e23cf8,3dcb4b820f0c54ac3b4934c275a07285,3eb58b59d1e08d00887338a5d28e8c83,3ee5eefceef67d849cd10fe0309a23a2,459bf58ca2c838be2859909166f4bd8e,4628a235f12ab9377779369e06d0e8a2,46eae22b0f5df3d9eb1c1b6b4d0979ed,47394af1100e242abbd1e1ce09b2becc,4747335cf6e50932897fcbb0c5fc0516,47c0cbbc8f2c445fd8af445c4785f491,4823eac7ade162ce9408f4531787234a,48d533457182cf37fefbe0eccc6370cd,49657fd0f66dc0c9fadb7a76a4c4438d,4a492bbd72d7464be900afeed3ffd4aa,4a617471e7e9ef87a5dddaec1652f5f6,4a6c32023a9c0414b93611a43ab2e97a,4a7a37ca8fd0ffe04b87dc50e0ed8f0b,4b294e372996ce9891086169c9d116d1,4c241f0f7beb058db097f64adf1d3627,4ca05e440fbf904bcec6acaa6419e3a3,4cc7061fcd5b4fcd48680f734e8ded06,4ea7a79e165ab1c732031f61816c74f9,4f7fbe4848d84527f943e630ece80f51,4f927c7366d53faf412833b101cea313,4fefd3ddfb9c3de1651ad4517ab91a96,50c4567910430a7cbcc0799315924ec9,5104685e3547f7889857673344d304ac,51dc99c17003ba96c565497f74b8f0c3,523f9e162966438a4d1482831f020cbe,5268086404e1106c712345726e894f06,54f1d056a621d6e6a69199326f1ac0af,550df12bc561cff4b34e144d5fe55b7f,5546963851c6b0f0b185726892ee7b2e,556d91e7b33fd7c4952b60195f6f1c6e,557c5907122a1325bd3ac1edb14efe38,559615ddb1e1b56c99be8558f837413e,55a12fedf271f6ca56a10005e549282f,56443aa3849f20e0bea2762c5e2cb82a,56a2e3facead91fffcf31dc7f8f1fa93,5722566b201a860939f1b187eb4f520c,5a9ee2ed397c2b782c08eae71112d95e,5d4fc8b6a0726b0f1257921addf300c1,5dc03b7daeff725048cba59d46f2c2a8,5ee190ed330717c4a1b357163fc2ff6f,5f2406154fc8ef0127f3bcc3bf4cbed0,604a0baf6202574af957de3e97a21ee4,611067f0419045098022d750354f6eb0,6393bd2a0e1fcff21daabf209a453e2d,63ecc85e440b61b3115b0a1c539978a1,6438276173cd7879f7052ec547b7bba3,6582092bffb7e5b250c16242d0c0f297,65f8c08744d226a31ae67881eb1e898d,677623cd58f63210d5b2d809274c3776,677fa5eead25107508528d46f9ecee67,67b469c82d644c5f5b0eafdb81649fd3,67bb862afaef8edd652dce5d5aa2c380,67f85d806ac0501ddf2ab5a6e6a8a1ec,68419107dd2c1d6cabda9631e27db1d0,6bb4c622de42f5a91520ce0cfc2b56a8,6c2469877476869511d078391e3bfa97,6c2df82dc9f7d95d2fa26f981a6802fb,6cb9877dd737e2c943bf72ba0f114e30,6de8cf623b5f406ed64ee1246b1be4b4,6e27626cc7716290765de45a07b0284c,6e6d0d283f8794d158e9ad7f09960b18,6fba97dd3b704da519776c439035821b,701e711444ea753c6fb81dd000808050,718884be6ea446cd00077da4d330d8e2,72287196e85710d54e525ec581f86551,7262c184116681974d7c727d1185c0ce,74d2a502e6de0b62163cf27f713c5b9f,76cc1cd67d19d8dc6e5ee11117ea0e94,7856700e0ebd0f63ea3ec7d98f7412c5,78640bc443011a562fac6913243fee61,792d482e1603901a40b4fc8e5a39e309,7a873bd19ccbedc33503267469ecf5ea,7e8b98d111e47c2dc625166be2f73bf9,7f1d8c4451eb52641f7453c17696bf6c,8091a191742e9d758effa9c221752de5,80dc46738cbb26e77bd9c842d10f8d24,837d73077ea37042794d7c79cbbd55fa,84c0fcf56a322a6a78e8b758a260ef91,85913f0c497150296299b5868cc81806,85da9063066716b3246cd0ad4f665486,88e66594808c68a86420dd8b72302c3c,89c938db8d9264a11ad5d9e8453a5f22,8b36aa1bae030e181a2d4e09ded8dbbb,8c313c9d59fc1697a7b47ed4c536ba45,8cdaa662803d730cd3d608604b8ccc1b,8e3b4c46544d3ace61ed495b6f381464,8f824bd0b738c65aa209929ab1666660,8f867561ae62a0498db0c55fb0edc934,8fb522227a33af70c804ebccb2e0aa99,902bd5cc9b3bfd7174cf11aa3c302a1b,9110148c75a18ea573b3bc9904d05d7a,911b1952030fcf48e5b8047db1475214,9135b9c4745d91fdf22b1792a9f7823d,91a41add89cc1956ef72b139fc0dc36a,92878adf27a12a3ddbe6fceb4e3275f6,92a69246923fa2c997c515b0b357e8a0,92b48f8902a01a8e9bd724ceeabc8af9,92fdd613be6eaf59c4883c27aa436bcc,93092a331bfaef238235df70f700accb,9319d05e7cc994d94cd1fa91fe58612c,93bbef6c12dff490949e207ce7b57c97,9458b7dad37c46ef77432c07caaaff8a,947a5d4c7ad27a42b75192942695c109,950e9bf0cb8019c5c4572bb69432e2b8,95235d1f076982d8fe7996450249bad7,9567323bb2aba079837b3d6b60688068,965b2e018609a1a0e3cd887a9262426f,965c869e6494d6aa9573bc46b38b0863,9722db60e77619e7eebb81db4b226f7f,97411ae93db131250771fe2ae897e5cc,99df9369adfdd9d4b907bdd11bdc0e5f,9a59bd0e9af8ea1de6716142351b7982,9b174cda29e888577f6942e5dd5aaf6f,9b1bae2f9b97526fafc8f150d7b486cd,9bbe06fb247b933d10f35a2220a0b5d4,9bd1c21c7d6c7f881fda334545158df1,9c2d8a17c717cc793fe7af5d37951703,9cd1aa544247e876f4dc6e2e454105ea,9d0aa7542990f0c3061ec3fd7dac6354,9d56e90a5fae5721052d961ef7e7d2a5,a0032094ba7a48ae0550c95116ddc542,a003788fdabb27a0c255d291ff751a5c,a0ba082a7067eefcdc4a672dfea6e41f,a498df6cab3feb774fb9570fd7143c3c,a5b2419d367b1b532eaaa6468ac875b2,a77bce6df3593ff2cb22310b85096033,a84abbad64d4daea0d5c0b7c86950523,a8ba90ee97d6ed2aa4aa6d6163c1fdca,aa316b1ee29ca229d3b6e3baa3caada1,ab317db3925865cddca3f29dfa80f665,ad76d1bbfa002fc908d1d302cdc3ff98,adccf260fe656dad59e86a6dc8e50f6f,aec3242558de5d1d6e4480ed7c673bf5,b01a71b94a5275a92a815babfb05b506,b09067de9452930758fee710fad8e9d7,b1416bcf57713181f67d91a8e135ccd7,b394a77079b74bac5f72a9c3320058b2,b49a1fdc282cd8559dbe092845a63979,b54d0f2c1700cde34216567c74b49403,b65ce84f223f08d06700c147ce8832f2,b79951d6c761e531a05659cb65255bcd,b7d95e87ceb4f61b19f11fa8b601599b,b7e9f2010a5a4fa0682360f66ce9c810,b8103800f6b00ea71a1868e3723ceba0,b8347a69a4731d052daa6c65010b6db5,baca416990c75e3ce98b889c7cb02f18,bb04f0db97606a5e716419b3cc77aaaa,bc13a174cdaf04564d81dab5feb338ef,bc37094e8567503408d97a79b5433028,bcc9e067bb7eee3f617966cd1b2ae742,bcf4065e27a7ff738f4a28c9769944ea,bdc8f6b36a8a2ae56de3aee01c55af69,be2721ebca88dc5f0b935702dc065cc7,be6d75e0372aa8fc3a06cb6b1c29985f,be76abf907294ba5e27bead6c7a161a5,bee2c9aa927974a5845c9a4a2b7ebe77,bef2314c96695b0702209b5cf9521182,bf20b4762ad373cacb36a35fba23dcd4,bfcbae5fb0e96ee86398f66514235023,c0912bf03f31cfacf07ce3462cb611c3,c0b8ab6e294394f6d6031669e1fa3b0b,c12a7b0b4974a6cdaae3d7530fc0cd41,c22243debd017cf66f9da329f4fab550,c265f6ec7200ed1f03f1501c3ae9604b,c2789cc390cd77132790439ae7102061,c2f46b211c18980df4af0d11cda5eadc,c456a2fc832afed8b60a9dd0c155c5be,c52404d9a3cd381886113b9c11ed4f51,c5ad7a91d56f32bffe890a9e8e3c4d8f,c5ef917a072bdc88098f92d6e350853f,c60d4ab5e2efadca90143bb7d4415fd1,c619eb858d1b5afd0ac936c3015e5f80,c78e804b52ac7b8857b2c5da1df8d243,c9bdba35d3acfaad76c53bd137f29d72,ca776f96c9d26b00009fc9f02cf00c44,caf0612ded126d195c789180a7de2c3d,cb19c99d6d857520f32a99de4676baa5,cb9491ce33553f6dfaeac8825d136adf,cc27e49038ff84139ca6d2fa4b52e643,cd21fbcfd823ac35c94651f7d629befd,cda0258fe9e46292b58046ac837083c2,cdaba843ddabb1a7d9df4a83524dbc5a,ce0a46308749a783946f1f1b1980b0db,cea0c70a86c95c56f424b2c317562310,cf2bdc684a33337cad1f52d6a93d1379,cf3085efff6d57d72944424e6e412633,d08a6d60f19fa3f79bb2ed9b35026595,d1282e2f4ff39ec47248bfc92faf3f66,d18d3a541861ad68fd67928cbb1d7056,d21f1b5abbbcc77cb8514d558bf4d27f,d23b68d9eee3bed1341715f6df1628cc,d32547df5dc908df00e606c6da6915c2,d37584acc79096e465d0a04034ff3770,d5291509461a2bb206d546dce6967315,d581b1c9aaf1a1e3fb9e47820af732eb,d66430d06d45bd83015cd4e272be435e,d6861067b48f2d01275503b2c16560ba,d78e7e3e739ff90bb23f877c1f81a114,d7c40dfce5467e2a0c850c0e786e501d,d8a7c2f489c77b107742d89a90ba7096,d9a7074f2c9a6835f091a5c5b5084e6c,d9b724b50637a3f56b0cb6c95394f479,db72295f64e8611d108556790d08c723,db75348bf17d7e1827ced201d604fd23,dba177c5454b14919a45c53d874d93f7,dc3f369ac758fe2dfd56624439e7fa96,dcb96508b4db1d9e860541fb68f7b1f5,ddab02a78a21523630eeadbdb6f2df53,ddff848f38eb97ac2ae2c0101fadd1ba,deac0311f08ab572edf5c03a072cc470,df015bfa17b41b4ceceab90aedfb11ff,dffb7b4940e0146e0d3de885940f1537,e08aed2387f8d8d3b7719d1e248fa978,e11fdf527f03f7ec134b433adbec83a4,e15ec9eb089df2cdaa7021b948f08452,e1fa77b8622d102b4f0ea7f5b64183ab,e24915f872b88560d3125baa84296d23,e2e15c0e23ff661c7aeb2e444db8f45b,e30241afb5c9e652ff7f1d838be9093a,e3b66475404fea0a967dabb487e759f7,e4b2d0bf5cd2e2db288832c50a640cfb,e5087041292954306387f0f8d4ea6a20,e7c659a8042dca810b02c0336c263240,e88936548502e3b4077282ba9c540efe,e8e4563c66c74f86c0d84c1cf2148712,ea442c93c7f8208e7cb8c77a9bedd2c2,eb7eacb05232f21178e81631063006b9,ebb7b5d58b0bff49fa92e43d879b24c9,ecc2e4e4f7de67f159627578df34d15d,ed8428135e4ecbe8b7d7216c29fb9769,ede6f8ab074b682d1dd8458a8ad83b55,ef075a177e6557c1fa39327e961f4632,f3c8a0064b1e822efb6637b3fda8cd52,f45b2788b3aee8e886b774781aed255c,f53e322e93c971e1fffb599a49f45769,f5ac29b7a636823436ab6c2963a874d1,f63c6aad20ccc0bc4e4fcf08d4391d72,f8c9d211480e3433459b40479a7e08d1,fbfad8277b30bdc1106985ba329f6688,fc69caa4e538a10f9909125e58dcf3e7,fcf92ee895911775032f63c36e56934a,fd09f3bcbb086c79b4d1243aefee40e0,fdafb032a5ff3bf2da7f16976377f717,fdda10f16b7194164d3afccfe3272f53,fe828de89def1061fe1331b2a4b39c11,ffe5ab717bc0d1c1a6d5a2511a416836
00056bcaf3eb04f1d988da98936bc1d5,1.233514842,-0.796924411,-0.549457735,-2.11781359,-1.650665264,-1.108631447,-0.692380881,0.693885678,-0.368990186,-0.478043655,0.138913055,0.198840108,0.026149529,-1.365913278,1.106256745,0.019698996,0.452918597,0.572632019,-1.029829711,-1.139835558,-1.33793202,-0.182735433,-0.398036799,-0.81385473,0.163685672,-0.760718703,-1.014191872,0.095872364,-0.50004307,-0.296577895,-0.774747031,0.316422139,-1.652586883,-0.539119693,1.698513466,0.024751447,-1.795900872,0.689861467,0.333154688,-1.596126871,-0.46643703,-2.416200538,0.702529784,0.708013999,-0.679257733,-0.838377985,-0.012214616,-0.439088971,0.408865788,0.589657468,-0.978335416,0.120920154,-0.009313108,-1.480819421,-0.977867269,-1.753838875,0.423517327,-0.343614648,0.501391664,-0.58327458,-0.387894037,-0.166604614,0.685838914,-0.771856868,-0.023563527,-0.140908339,-1.052963351,0.271143105,1.650000125,0.764412651,0.413879221,-0.938032574,-1.142667153,0.071081757,-0.865466676,0.652093885,0.696145783,1.201333064,-0.01351023,1.279142135,0.374505932,-0.856834456,0.256898453,-1.696018728,2.041346862,-1.168731158,-0.285001393,0.242722933,0.60692376,-1.215386094,-0.108728926,-0.129129306,-1.072883243,0.427199027,-0.243470579,-1.335474293,-0.214014449,-0.433224254,0.060111232,-1.052000724,1.200592279,0.71949685,0.159415869,0.512392993,-0.585032689,1.446313892,-0.657506886,0.762968435,-0.181988029,-0.142672969,-0.947042081,1.03650788,0.73560336,1.080136509,0.53324255,-1.304843425,-1.130934014,0.063357988,-0.858516727,1.08661247,0.084116388,1.264980194,2.42293869,-0.70315948,-0.705692856,1.687065851,0.163743586,-2.506992184,1.053018336,0.005525867,-0.507720218,0.720016073,0.739749084,-1.626561222,-0.790180616,0.373785033,-0.937672038,0.738497995,1.516981584,0.552146852,-1.36703356,-0.695135143,-0.658970247,0.050636848,0.887766289,-1.967426095,-1.1738334,-0.009075982,0.070825893,-0.775680806,-1.657029312,-0.71422414,-1.396877396,-1.050003984,2.109177954,0.302252547,0.71885665,0.004789532,-0.539284858,0.307932855,-0.489863706,2.343357183,0.46915578,-1.424597202,1.055764966,0.319740817,-0.70055386,-0.632299691,1.044219311,-0.132391938,-0.326982725,-1.237252213,0.043286448,-0.288705547,1.086700523,-0.62675345,-0.463307727,-1.388104451,1.513330939,-1.000568204,-0.165829133,0.34417358,-0.873471687,0.221670322,-0.773497981,0.973232786,0.068344448,-0.535502209,-2.157628676,-0.182770493,-0.258336323,0.450711271,-0.740242461,0.643204278,-0.583387938,-2.822878405,-0.207892516,-0.612257866,1.869280598,-0.355188204,-0.279169979,-0.799302023,-1.086971422,0.30884585,1.711805535,-0.983065448,-0.555743868,-2.517930383,1.546703995,0.959862315,-0.704833146,-0.218434184,-0.823970569,0.105151048,-0.065124017,0.178604546,0.24129078,-0.486980253,-1.318204885,-0.262048999,0.371608156,-0.39432578,-0.080389097,0.821830245,0.098603625,-0.446974945,-1.691846667,-0.700079641,0.549226803,0.705203884,0.339222947,-0.406172304,-0.505035763,0.136098716,-0.499838803,-0.925397311,-0.080819073,1.242942604,-0.774911575,0.482595923,0.591841451,0.808303331,-1.803992291,1.226641416,0.45302527,0.691407061,-0.639035584,1.461896303,-0.946389598,1.37664754,0.673428352,-0.222226605,0.022430994,-1.201188223,1.010144883,-0.957663554,-0.663355847,-3.114199866,-0.524085706,-0.163335902,-0.14355533,1.991466976,-0.593886905,0.350435582,0.285293106,1.482718167,-0.86613585,0.100131698,-0.949657382,1.309886711,1.696673726,0.591951199,-0.371955503,0.66433698,0.446585509,0.066114363,-1.695859893,-0.945920014,0.246323415,0.251969581,1.309425541,1.963558578,-0.031923045,1.729082789,1.220248599,0.398349321,-0.555228687,0.325827932,0.971136516,1.476527262,0.652446338,-0.566188982,0.578897317,-0.16706416,-0.025601414,-0.978264392,-0.484885194,1.087573678,-1.338138977,0.575257178,-0.527417275,0.104076962,-0.236245556,-0.321979072,-0.392678061,0.55614615,1.068730208,1.113222768,0.732432,-0.302135732,-1.062291069,1.211045454,-0.172558439,0.653559685,1.343456237,-0.018309672,1.465484859,1.497123388,-0.860973454,0.463258204,1.126851234,0.43233498,-0.175324145,-0.454866586,0.106879613,-0.134316946,2.479249892,0.461793278,-0.054052456,-0.043026981,-1.835165688,0.179987967,-1.236313424,-0.930302598,-1.563548203,-1.413739354,0.21458687,0.331651646,1.203067441,0.942458477,0.652310606,-0.113006082,-0.359203733,-0.056356765
01678bcea2b58f4934ca047a3d8d6b97,2.142025828,0.865668668,-0.669535881,1.926243825,2.366874931,1.767456888,1.426130253,-0.272708441,1.17847467,1.485699034,1.702114765,0.345266055,2.410757479,1.566030101,1.675330043,0.92425342,1.553165205,0.086278044,2.683879876,1.008615469,0.802176774,1.112951072,0.790946035,1.169976692,0.879352327,2.727722863,1.163367401,1.927582773,1.373099911,0.767670731,1.956092921,2.209265853,1.725976337,0.79418046,-2.038038746,2.535095765,3.253528183,2.436788216,0.577372465,2.548018303,0.039829793,0.324075159,-0.063566792,-0.417425131,1.518045014,-0.011714251,1.097784736,0.50052788,1.261013109,0.524258584,0.822793736,0.941715571,0.627606859,-1.806838829,1.002641041,2.582061772,1.039460679,0.69905707,2.071448406,-0.23771628,1.645965802,2.292691537,0.709170165,-0.073173258,1.390126263,1.281165158,-0.867425577,-0.239008496,1.257704197,0.990894156,0.366824478,1.264140195,1.787322896,1.128861174,1.253844426,0.209806009,1.073679131,1.870834687,1.626563155,0.637484023,0.45110616,1.311156444,2.171353087,0.029624302,1.134635488,0.921623804,1.17825793,0.376968259,2.400816156,2.153034597,2.044239716,0.685698301,1.998655077,0.887100576,0.991839035,0.396872774,0.345337767,0.140974982,1.163791491,-0.429100781,2.0210532,-0.647590755,1.050087557,0.55780876,2.526745615,0.237476824,-0.287510775,1.995767047,1.439224985,1.397336264,2.206237383,1.278083884,2.339751843,0.616648857,3.403604185,0.617773264,1.488701444,-0.21644721,1.005177387,0.976471988,-0.626721006,1.915171624,2.21059523,1.684398578,1.475374682,0.50803859,0.893092991,0.441613407,2.082674549,2.044607936,0.929574425,1.464766148,1.07968621,0.983536182,0.413008758,0.20450977,1.152065425,1.625516402,0.725934449,-0.422711962,1.631541512,1.207597404,0.441905633,0.975545341,1.043025342,-0.075473879,1.765223281,1.369582416,2.115480663,0.722290621,1.349220722,1.285676634,1.967593405,0.972676343,1.280103806,-0.166424573,0.307847969,1.226433213,1.399020911,1.586518087,0.802652319,-0.703228819,1.496833243,0.607476357,1.939193952,1.510906027,1.272946765,-1.403875563,2.294037071,-0.221386133,1.574548988,-0.047669837,1.471978662,1.864896031,-0.639858602,-0.088992612,0.486103631,3.109302707,1.889040288,2.215709703,0.809462033,1.308044867,1.141109404,1.842296835,0.601970298,1.782116088,0.455784614,0.985598848,0.815268102,1.847599441,0.981882427,0.892858344,1.100690064,0.394516187,1.36473289,1.940871792,1.025612273,-0.616195164,0.989925181,0.279200144,0.973914799,1.65319712,1.086409337,1.514735443,1.057415846,1.856495248,0.995457741,2.752282161,3.167385397,1.718747596,1.395896542,1.297473682,-0.151194213,0.322702666,0.58409225,2.440615663,0.965497439,1.111643125,0.570791751,0.89550281,0.864184456,0.297374325,2.056375446,0.239408172,0.777139125,0.881754815,0.377681766,2.027759688,0.802637534,-0.818900821,-0.407157466,1.411114797,0.10313671,1.596923833,0.623920206,-0.336267585,-0.060012714,0.846169302,0.334386399,0.257374502,1.821416031,1.653887801,-0.60494474,1.650585972,0.996035892,-0.214239054,1.197754347,0.876183526,0.311168755,-0.257688919,1.35163357,1.424237073,1.611535708,1.230071553,0.797910114,1.514629636,0.866260266,0.97040237,2.426755508,0.137227467,2.063511046,1.013464806,0.010481141,1.031994203,1.363790912,-0.069078194,1.555005395,1.016668289,1.103008567,0.830184217,1.211300931,-0.097128152,0.825423374,0.859520187,0.506852346,1.184625101,0.436864959,0.031034894,2.156782522,1.830014797,1.147015766,-0.553800143,0.842095897,0.825066066,1.444416515,1.802624032,1.758767794,0.561001156,-0.271822329,0.850076033,2.749243447,0.12396724,2.104795403,3.311806874,1.163785963,1.107269179,0.597501635,1.643769793,-0.063111755,1.200901761,1.019811025,0.145831346,1.343756383,2.512831019,1.025263984,-0.392311634,1.720987135,2.082325458,1.016453999,0.327927639,1.248142462,1.359292389,1.104579259,0.686403359,1.208704098,-0.08300771,1.489413731,-1.098845212,1.553223642,1.835130485,2.198867251,0.830239103,1.112145373,1.00482496,0.717555318,1.27426559,0.985169016,-0.219560362,0.512173533,0.767340543,1.456856866,2.435642256,1.010319889,0.176351931,0.47670312,1.387502968,0.489031779,0.312161298,0.142737232,-0.343554788,0.327312018,2.244921986,-0.185535747,0.647479265
01bd3fe94455ce451ccbe6fc57069261,-0.514836816,-1.279331609,-4.329834107,-2.001142798,-0.512367674,-0.877529434,-1.754723559,-3.151432627,-3.177283496,-0.203219005,-1.035092423,-2.384722445,0.000769904,-1.131510408,-1.149501807,0.11551785,-1.337980783,-4.313682341,1.799325716,-1.672745043,-1.230228332,-1.81537802,-2.26081257,-0.453146182,-1.467177609,0.462552186,-2.726722895,-0.072434361,-0.725524977,-1.343434381,1.521137726,0.407902906,-0.088113353,-2.413112147,-6.033636292,-0.246991873,3.443546629,0.777440086,-0.634807682,0.581869319,-2.317629,-3.432636641,-2.012811555,-4.743499617,-0.553052342,-3.021964658,-0.888452599,-1.692419795,-0.440860703,-2.516988432,-1.460198619,-2.576888696,-2.893551527,-4.831140923,-2.307910471,-0.276489846,-1.11990014,-2.582324934,1.509393916,-3.371075524,-2.058491475,2.603531278,-1.693946168,-2.807858955,-1.940132938,-0.447778198,-3.071294187,-3.163262107,-0.571022971,-2.633265634,-2.338655881,0.083686624,-1.515782997,-1.72939519,-2.143822671,-3.215748881,-0.597826002,0.901340068,-0.225098026,-2.085410779,-1.400204504,1.275770663,0.842201511,-4.073185271,-0.756513754,-1.517902951,-0.623293023,-2.029419522,0.90893496,0.313034395,-0.895156484,-2.168208849,-0.434743818,-0.638435045,-1.12296292,-3.457848994,-2.265264123,-2.752550133,-1.761794646,-3.709837721,0.554785793,-4.149850414,-2.026597888,-2.324208478,0.606008968,-3.324129036,-2.910250484,1.599553602,-1.673907509,-0.509563561,-2.242763115,-0.122400011,-0.026948538,-1.811138582,2.441412045,-2.287069149,-0.904681491,-3.770395449,-0.55816162,-2.057779512,-4.996952565,-0.461161341,1.064451232,-1.110530597,-0.457507505,-3.29801747,-0.915331969,-3.058739134,1.119056652,0.274138633,-2.229331001,-0.790024374,-0.353074432,-1.743041679,-3.401091589,-4.148621075,-1.400100144,-0.383450432,-1.015176327,-3.27359555,-1.011844052,-1.835747831,-2.806321227,-1.008383011,-1.509592683,-2.89377625,-0.84876528,-0.87033209,0.623687081,-2.692087995,0.009643735,-2.168806809,-1.064406245,-1.581977613,-0.642019368,-3.251603218,-3.227405362,-1.538437157,-1.1457793,0.200043699,-1.288569415,-2.037569549,-1.633735017,-1.371655466,-0.34159365,-0.211797976,-0.939339181,-3.949707351,-0.148452657,-3.91574205,0.344153129,-3.132408135,0.524635259,0.884193071,-3.967429285,-4.10496244,-1.730171742,0.191157938,-1.253595117,0.143617562,-2.153421154,-0.963937341,0.132858938,0.108759347,-3.032148661,0.083657113,-2.56944308,-1.797042864,-1.883253096,-0.602433925,-1.746896622,-2.711181715,-1.354477723,-2.439530902,-0.134703132,-1.807044056,-0.507477837,-3.210502431,-0.841033887,-2.582947628,-1.590701175,-0.30498172,-1.51778573,-1.473226756,-1.058577887,0.442026432,-1.034694697,0.526596337,1.782484296,0.389797459,-0.232392449,-1.06435943,-2.767457279,-4.002171657,-2.955582179,-0.273981373,-1.566062213,-1.321105618,-2.351290001,-0.543701439,-1.21246112,-1.322442231,0.413633211,-2.125203312,-2.051211444,-1.596375135,-5.085104288,0.787105928,-1.539994322,-4.827244928,-3.923310628,-1.382252474,-2.729810664,0.213509437,-2.675838751,-2.929095164,-2.703921147,-1.53028245,-2.350983429,-3.160637356,-0.015374297,-0.80580732,-3.06621503,-1.196369003,-2.378985236,-3.90838273,-1.296616478,-3.761223311,-3.476108902,-4.039259488,-2.178318134,-1.187341086,0.058711521,-1.181399523,-1.769364624,-1.964758313,-2.563079398,-1.967678563,1.134640806,-2.63548105,0.072165602,-1.136175987,-1.859266362,-2.445092463,-1.016128423,-4.436808061,0.321191915,-0.569521566,-1.767662206,-2.894734186,-2.207506652,-1.964392582,-2.663193385,-0.477324532,-4.366602044,-1.382256789,-3.006709317,-2.889953157,-0.848333269,1.336291767,0.588113654,-3.627451369,-0.796926512,-3.281953919,-0.185722599,-1.06591855,-0.024944891,-1.100001558,-3.595088704,-2.178086841,2.841238462,-2.484101931,-0.576708498,2.130427186,-1.539078471,-1.468523501,-2.619308973,-1.429129546,-2.312506645,-1.933253118,-1.218227855,-2.836752095,-1.603622703,1.164704005,-0.695705759,-2.489009175,-1.522712649,0.74681981,-0.859392003,-2.643712575,-1.337261213,-0.883629124,-1.115422376,-3.582732014,-1.498818017,-2.469818628,-1.187368364,-2.506978919,0.538514238,0.92400239,0.003415279,-1.945330459,-1.201010402,0.125005123,-2.064110877,-1.814981224,-0.662293303,-3.924891695,-3.511534111,-2.877139912,-2.374121807,2.279116193,-1.691286431,-1.497155209,-0.604967008,-0.349963424,-2.76994055,-0.951879564,-3.074422155,-4.364664708,-2.685510865,0.250165885,-2.936241469,-2.154430644
031bc75c4d162ff7bc8bf302eb73565d,2.881616808,-0.242363317,-1.724877912,3.819384253,3.539789983,2.202932057,2.101106087,-1.822020351,2.145094542,0.866637639,2.18208602,-0.796363198,3.722157403,1.569878301,2.206833455,-1.186568103,1.970096421,0.006228833,2.461459316,0.241322492,-0.173237147,1.048269096,0.377330966,-0.28982372,0.121051216,4.370197486,1.984646477,2.076401924,0.651824641,-0.33457156,0.698589138,2.41758748,1.115141701,0.315994704,-4.840857119,4.522068523,3.02659918,2.894913062,-1.576082969,3.461271323,-1.938192317,-0.030172143,-2.414107963,-0.781696314,0.89752346,-1.435703498,0.357283554,-0.952785359,0.28236633,-0.129552434,-0.058247262,1.175273914,0.73210219,-5.014819251,1.3073079,4.251450045,0.421674312,0.26819784,1.259642352,-2.008981664,2.94336249,0.304766824,-0.411298921,-1.604133942,1.857612325,0.594694534,-3.905330313,-1.976997145,0.372273889,1.920415517,-0.689473612,-0.297424443,2.83420189,0.988384601,1.933338348,-0.968481671,-0.202555334,0.778651341,1.276495166,0.131435234,-0.990501244,-1.26228227,1.892463212,-0.574491873,0.217885177,0.170538705,-0.064587817,-1.504758465,2.655128301,2.202573843,3.27970187,0.081340406,2.541661592,-0.586795955,-0.033008801,0.433045001,-0.791027495,-1.079519699,1.436416993,-2.21879488,1.910504189,-2.596194234,1.029268777,-0.125663694,3.144141718,0.185848564,-2.111639006,1.148771592,2.118294228,0.99972591,4.834585893,-0.117910485,3.123905943,-0.043176661,4.249219381,-0.177832759,1.315298166,-1.268877152,-0.716343374,0.675434654,-1.098539009,2.14881477,1.663884337,1.753924461,0.872897079,0.577871421,-0.591718099,0.427390973,1.324777904,2.137085555,0.960585105,1.241496306,-0.811018971,0.706364454,0.529047474,0.084942614,0.7922676,1.23446206,-1.040486707,-2.873316824,1.909941065,1.60690979,0.026239191,-0.222330272,0.586319115,-1.152338423,2.30989217,1.13309115,2.387563916,0.382304126,0.127447108,1.800581205,2.805919902,0.230564445,0.635142153,-1.667769892,-0.337803062,1.048286663,1.172878228,0.599235305,-0.198415496,-4.241783833,2.169212107,-1.251685453,2.330120145,0.784320388,0.789224989,-4.618257114,2.940372114,-0.894441798,0.753151075,-0.972164159,0.368011262,1.483689025,-2.73861299,-0.52275841,-1.070216826,5.034115123,2.694674803,2.945628733,0.500073246,0.775973143,-0.724791173,1.864114731,0.763929092,0.943494996,-0.111608484,0.688855688,0.226416624,2.342730035,1.094199829,1.02140427,0.556173659,-0.771706223,0.361226033,3.510765667,-0.481119038,-2.867552481,-0.068265487,-0.556431889,0.478422477,1.12298162,0.454808107,1.920678048,-0.06384421,1.274092077,0.349521223,3.821602855,4.061089436,1.073759278,0.532778208,0.974776586,-1.93301888,0.737292357,0.229838934,3.647465136,0.460272435,0.580382726,-0.103285195,-0.962147283,-0.372310414,-2.232693915,1.657001147,-1.492067586,0.247584447,0.162483785,2.29262503,1.611753869,0.091618794,-2.212690889,-1.934283379,1.744180415,-0.921787397,0.875090727,0.406683981,-2.553695551,-1.706327953,-0.067537378,-0.835472312,-0.58741865,1.237556515,1.7752296,-3.107023009,2.439578341,1.225548007,-1.065775201,0.79953049,2.002866382,0.053138444,-0.985954662,1.890346129,1.416306719,0.938950486,0.593004948,0.118040849,2.754859194,1.112375237,0.702609656,2.460493915,-1.105807806,2.842831172,0.470116293,-2.160267557,1.386435836,0.945810399,-0.516184138,0.310799744,0.011867862,1.145400983,1.011476523,1.743038358,-2.642215072,0.791288246,-0.759177402,1.652820428,0.775765999,0.530183146,-1.235438426,3.19991346,0.431634268,-1.019365601,-2.118205045,-0.773121198,1.412824793,0.484860336,2.855568545,1.372521715,-1.28919229,-1.650829315,0.543045247,1.865699963,-1.069238313,2.685639603,4.483335706,1.03461529,0.74135613,0.263960137,2.465562961,-1.770013069,1.570103317,0.047703388,-0.637594744,1.673571633,2.531162081,0.019898432,-2.847778224,2.151405658,1.669366625,0.100580953,-0.354272321,0.544973062,0.9627631,0.59954535,1.127988967,0.689594824,-1.909673217,1.426109324,-5.102118897,0.428530981,0.801421817,2.558356565,0.44262492,0.404566168,-1.016442835,-0.082213488,1.422295834,-0.451362996,-0.824955053,1.040115136,0.838773895,2.69066034,1.852013367,0.634010778,-2.179727946,-1.769143392,0.683410423,0.21242273,-2.317813181,-0.52841456,-1.526705875,-0.526575708,2.736845685,-1.595984463,0.024932964
034640392fd761ca55a00036940c73c1,0.191375682,-1.627265671,-0.083885149,2.447438389,0.608821996,0.4693393,1.249642243,-1.577217228,-1.053123896,0.050043837,0.63633316,-1.748401778,3.292890458,-1.251138646,0.667229638,-1.817533368,0.346625017,-1.687436089,-0.276510111,-2.794872231,0.012361391,-0.331373484,-1.248488736,-2.946263046,-0.564334496,4.24643833,0.29147563,0.832555926,-1.816970261,-0.930882729,-0.515049177,0.59328337,-1.716614891,-2.349954975,-4.744404102,4.941010607,1.575484669,1.505013683,-2.072754479,2.257611019,-3.376217022,-1.591850209,-3.201614373,-0.373988608,-1.859006856,-2.783574832,0.024350696,-1.963133536,-0.963212828,-1.22977004,-0.681875611,-0.347024653,0.540138022,-3.896672543,0.715085517,2.501933687,0.264477426,-1.907436786,0.909772594,-4.205132267,1.38655172,-3.238229917,-2.071927262,-1.842595094,-0.476208605,0.54430037,-4.140432242,-3.06896604,-0.992897877,3.015598302,-1.25078423,-2.035139505,0.993493193,-0.550180104,1.20620795,-4.412394798,-1.599906926,-1.548181937,0.149089382,0.476573142,-0.098426252,-3.071638003,0.056961554,-3.096048789,-0.818221014,-1.142318995,-2.526776453,-4.822752588,1.251572126,-0.195228905,2.381513438,-0.927432613,0.842592065,-1.115608442,-1.67527229,-0.133412623,-1.168668811,-1.865527828,1.401446727,-3.962978272,1.206522209,-4.785135814,-0.419215377,-0.858710591,0.80900443,1.468017874,-1.937402588,1.848885974,1.502450645,0.830720747,2.926289846,-2.164374915,0.735431439,1.019875244,1.852971242,-1.908335992,-0.515077031,-1.988725986,-3.350536352,-1.510909116,-0.092915466,-0.328692364,-0.942723646,-1.942027935,-0.899677933,-0.356299429,-2.489895556,0.961052427,-0.662211797,0.924190086,0.162943117,-0.088701461,-4.180968485,0.037867798,0.42757983,-2.329430981,-0.562188627,-0.8147811,-2.990698649,-5.982362442,0.270958567,1.398512649,-0.303277585,-2.023588258,-0.594431238,0.495770133,1.268205588,0.416729569,2.873906985,-2.088382892,-1.184974575,-0.195029102,0.043042816,-1.883242022,-0.122109944,-2.784268152,-2.281284143,-0.863417624,-1.050611583,-1.301267583,-0.424032313,-4.085065185,1.067634945,-3.938683261,0.911057673,-0.886360292,-0.395929085,-3.908472271,-0.186940554,-0.353873311,0.461743787,0.027650261,0.610544835,2.661242854,-4.927786202,-1.088573367,-2.601032709,0.949621919,-0.290303046,2.437999226,-0.331534418,-1.156909936,-2.404026165,1.738729034,0.51683034,-2.882949875,-0.275205405,-0.362929622,-0.778306123,1.26577383,2.313294676,-1.103060263,-0.946159851,-2.633934694,-0.721689804,1.286760149,-2.063877065,-2.59798538,-0.613616187,-0.180346388,-0.491652324,-1.524878409,-2.054888157,0.048224216,-2.632613404,-0.437877397,0.934458218,0.940851551,1.449198417,0.272091125,-0.638798544,-0.26093802,-2.374986343,0.336025446,-2.024006845,1.133073073,-0.364324422,-0.828637755,-1.019935196,-3.023672441,-2.089991879,-4.654875727,-1.463780968,-3.029396968,-0.856617046,-0.9320198,3.784406685,0.42397876,0.130899872,-2.896498514,-3.620340624,1.060479746,-0.233876429,0.229502498,-0.328626375,-3.86356503,-2.194771514,-1.462922239,-1.637574114,-2.655504693,-2.205357505,0.018010251,-3.513898713,2.217048557,-0.01275183,-1.460499912,-0.773952371,0.178578336,-1.120615686,-0.911571364,-0.770385263,-0.202905594,-0.322864691,-1.969854432,-0.687291254,2.773583129,0.544920241,-0.769298849,0.737752394,-1.435955573,3.884338,0.857049346,-2.145939707,0.074598991,-1.26555456,-2.906529999,-1.93928868,0.703125579,0.629448219,-1.024256926,0.414930869,-3.800217456,-1.169727744,-0.974244129,1.191369391,-1.109222685,1.864302762,-1.671717541,0.345920701,-0.966979574,-2.213043293,-1.089014229,-2.219328441,-0.335746301,-1.508632196,2.891129281,-0.444912808,-2.22948703,-2.596626192,-0.858251854,-0.130698787,-0.31739166,-0.649876279,3.282622667,0.038670494,-0.468130614,-0.500493936,1.424734539,-0.724217999,0.820827861,-2.065045509,0.277993416,0.695461439,-0.065665527,0.052156288,-2.751350725,-2.070260831,-0.30960484,-0.095444747,-0.028534172,-3.247307928,-0.510667313,0.32275372,-1.182707073,-2.549166561,-1.974272885,-1.201020916,-5.060958449,-0.23001464,-0.735813218,-0.26056484,-0.065008135,-1.336597399,-2.027561516,-1.927195988,-0.657044748,-2.003325202,-0.024323939,1.373903326,-0.951970811,1.46229048,2.179636144,-0.583360213,-3.22113012,-1.460404265,-0.136841175,0.204854183,-3.723167578,-0.12614202,-4.224648173,-1.24414399,1.211721576,-0.617145018,-0.598566882
048321e811e39faa7203a044f5b374ce,-1.12628952,0.014797161,3.09484932,0.178234273,-1.194796048,-0.687360158,0.153161633,1.98853805,1.542420689,-1.174073869,-0.543600387,1.136668545,-1.755711609,-0.343522615,-0.443080087,-1.214014958,-0.225803674,2.889253349,-3.276716358,0.353008211,-0.059642625,0.354676135,0.875457037,-0.754152185,0.131558919,-2.283850848,1.114667273,-1.457163095,-0.62178459,0.074655213,-2.799130112,-1.956558685,-1.282641933,1.044787333,5.149037715,-1.63533902,-4.94199384,-2.382457538,-0.446329378,-2.258295192,1.233963007,2.065126186,0.988385762,3.376262661,-0.814726993,1.844370363,-0.458708213,0.49777508,-0.868348835,1.175060052,0.154687721,1.068651665,1.41367658,4.02365801,0.787088013,-1.530744641,-0.250209596,1.205565947,-2.881639591,2.265185379,0.341061317,-3.757457242,0.429683967,1.645622364,0.379455185,-0.916003415,2.204304613,2.04124402,-0.761278166,0.984495121,1.071678886,-1.280048172,-0.156746853,0.28071964,0.548036874,1.988118368,-0.65330361,-2.211842914,-1.205850394,0.702478674,0.191394318,-2.295797716,-2.303322474,2.76043681,-0.569776342,0.190396395,-0.626558446,0.921515275,-2.476231191,-1.819917851,-0.830336628,0.815656533,-1.157686567,-0.573779547,-0.162771906,2.007868317,1.016002853,1.528618377,0.232068094,2.614642177,-2.05116773,3.082011737,0.558708365,0.985022189,-2.230215228,1.869992851,1.804622405,-2.969448404,0.067010444,-0.90863761,0.276043062,-1.113860196,-1.627542717,0.453793455,-4.143368889,0.981012207,-0.542490877,2.526340362,-0.597030606,0.639848533,3.656965814,-1.084007066,-2.489009378,-0.380058174,-0.916445809,1.821960619,-0.287106783,1.617765157,-2.496691275,-1.797594578,0.7574757,-0.660876752,-0.78097504,0.329549984,1.931030324,2.731542751,-0.005675826,-1.040329174,-0.139513827,2.29149482,-0.51946687,0.287462837,1.429147327,-0.247298653,0.113102668,1.649808248,-0.738168788,-0.573440467,-2.189746466,1.302468256,-1.266611408,0.605992382,-0.57193645,0.254172966,-0.739028778,2.085269007,1.894984975,0.095085066,-0.290558448,-1.515613967,0.000118245,1.230860231,0.024407224,0.258468334,-1.235907044,-1.148139769,-0.451134587,3.1259062,-1.478468642,2.600245403,-1.692377519,1.859369623,-1.824191616,-2.327460604,2.923572657,2.750810973,0.556791883,-2.053216911,-0.390411003,-1.782772956,0.743905873,-0.421922428,-1.271919093,-1.61901898,1.547866697,-1.427166477,1.213383445,0.382268839,0.53537622,-0.98442593,0.247804925,1.22407579,-0.017416633,1.195739077,-1.168706752,0.048756748,-0.695113106,2.191074969,-0.456511052,1.280352276,0.209425577,-1.083313221,0.168574441,-0.085216983,-0.219721137,-1.831727069,-0.326605307,-2.224336737,-3.489486523,-1.779428716,-1.095702052,-0.35795878,1.653441858,2.478873695,1.568148463,-1.454617478,0.183020116,-0.055458862,1.021723377,-0.589878365,-0.034757644,0.331044957,-1.841341079,0.983849817,0.681334907,0.259366556,3.297369949,-2.216370194,0.193052811,3.66076199,2.772573408,-0.16107353,1.466219685,-1.581125931,1.258230928,1.903086434,1.558611445,0.220173236,1.113353802,1.867069167,-1.373945964,-0.710996204,2.100814335,-0.447635384,0.866206435,2.623608161,-0.10475316,2.091552559,2.081552651,2.728034332,0.60388722,-0.293064783,-1.431917419,-0.171034837,0.418383523,0.257967828,1.055437769,0.565647968,-2.655798291,1.411884318,-1.727042977,-0.258003372,0.804434978,0.909996284,-0.390131129,3.08044298,-1.581778075,-0.733749657,0.288912068,1.395053092,0.626898632,0.97782955,1.211236299,-0.711311857,2.706239943,-0.019478199,1.538355071,1.679412835,-0.840123233,-2.590206616,-1.689742687,2.465962674,-0.381722535,1.707040949,-1.13464179,-0.626281271,-1.397849311,-0.031794211,2.406188317,0.75966912,-4.218065562,1.249456043,-1.028193348,-3.888017813,0.085165278,0.064971664,1.223168244,-0.215695022,1.178148732,0.385537442,-0.073868641,1.52442641,0.063657409,-2.683261731,-0.601717312,1.491433102,-0.040736358,-2.185567051,-0.459066318,1.312293159,0.00083648,-0.535245987,-0.272751752,2.047544733,0.11448557,1.354696071,-0.290838019,1.801746363,-1.827668371,-2.242898975,-1.578400856,0.543758955,-0.144801328,-1.237516077,0.747399263,0.314121045,-0.56731048,2.592656117,1.95898612,1.405903895,0.681650976,-3.705813684,0.29458608,0.476057644,-0.448888033,-1.003291764,1.359892652,-0.031592889,1.738355558,3.152328658,1.383631699,-1.848894732,1.748557882,0.804179696
049e9985c738df5d534704373d2e90e9,-0.784500636,-1.409109156,2.23579754,2.075464622,-0.498586953,-0.218932507,1.072872713,0.152832698,0.226408022,-0.932181307,0.03187042,-0.646680184,1.300630369,-1.380513982,0.135993677,-2.501838666,0.036295517,0.74238441,-2.820605928,-2.121558079,-0.1072259,-0.078747576,-0.438244399,-3.091629258,-0.437998165,1.683094605,1.013981343,-0.504216693,-2.05724352,-0.784352123,-2.644542867,-1.086103425,-2.483902098,-1.222290456,-0.039969997,2.75630864,-2.562841834,-0.657304298,-2.123652694,0.055540075,-1.918515354,0.185889802,-1.957492423,2.208465658,-2.241211332,-0.962592374,-0.402841789,-1.314220247,-1.534530753,-0.189410548,-0.518955671,0.4547117,1.456492795,-0.202837704,1.117752535,0.811261426,-0.043602682,-0.731597501,-1.526109976,-1.816680393,1.326993635,-5.634178614,-1.457088386,-0.333283185,-0.18329727,-0.322847478,-1.801874482,-1.044290273,-1.47546958,3.177410665,-0.283752239,-2.738545143,0.619103473,-0.316153201,1.339546739,-2.203243053,-1.895401968,-3.048984612,-0.875390383,0.864322947,-0.000347694,-4.371330553,-1.794149978,-0.525975951,-1.182622867,-0.874929112,-2.646098179,-3.35833187,-0.938377928,-1.63727064,1.254687285,-0.215897958,-0.270774015,-1.43152902,-1.5848372,1.351640212,-0.258874741,-0.443644331,1.263484282,-1.348188817,-0.646018539,-1.667700924,0.005230898,-0.027218705,-1.121446055,2.580428639,-0.287742606,-0.813357369,1.217441615,-0.081445929,2.544987891,-2.715954626,-0.718813751,1.125098298,-1.722876021,-0.903866608,-0.920678983,0.219545439,-3.304873226,-0.835054484,2.656831083,-1.180187958,-2.760779215,-1.981274021,-1.523220878,1.029003939,-2.352533951,1.958936819,-2.534799203,-0.689206579,0.639444826,-0.654088146,-4.131350556,0.207368485,1.758687504,0.088424781,-0.546180432,-1.546763141,-2.650638165,-3.264942206,-0.254109072,1.301382481,0.770766058,-1.937111612,-0.477940627,1.605548366,0.404259083,-0.16866399,0.626945618,-0.808782753,-2.026183292,0.222411147,-0.487419234,-1.440789869,-0.736497178,-0.775769635,-0.509456536,-0.718462615,-1.170421258,-2.311985579,-0.42190778,-2.493678744,0.825035287,-3.136498757,-0.269234682,-1.687352764,-0.748806317,-0.900109797,-1.368477391,1.630233238,-0.986616955,1.378081273,-0.961704143,0.348580608,-1.906031114,1.133505155,-1.797710409,-0.879220342,-0.619482199,0.57249873,0.22154243,-1.355837614,-3.036285304,0.124757319,1.538411661,-3.556729214,0.630775382,-0.082791937,-0.310872374,0.2153096,2.032919521,-0.052209293,-0.872275415,-1.335379966,-1.566146082,1.013730568,-2.312577574,-0.536426925,-0.925210383,0.761997244,-0.32047851,-2.170848959,-1.649766644,-0.103651344,-2.419056393,-1.843008365,0.452324435,-1.013956201,-1.554726386,-1.209797783,-1.44248876,-0.565515875,-0.767535211,2.102674998,-0.550114297,-0.259919078,-0.234091048,-0.803579889,-0.136117907,-3.026124338,-1.828283203,-3.668849851,-2.701546162,-1.822055338,-0.260324569,-0.646411775,5.579570157,-1.423529326,0.186577752,0.340196885,-0.94196713,0.677537244,0.861247916,-1.093863758,0.617475616,-1.808636305,-0.690370634,-1.112860103,-0.574091989,-0.840529448,-2.955897971,-0.606183818,-1.366255411,1.417271649,0.577387135,0.732336483,-0.797197241,1.672239315,0.591516272,1.268433697,-0.25448548,-0.469701399,-1.438339571,-1.839992712,-0.318981108,2.413831194,1.183417145,-0.284022112,-1.503116159,-0.176073133,1.816861221,0.444462965,-1.225964033,0.682462601,-1.422493345,-0.118617769,-2.892601845,-0.048557135,0.666178446,0.145552956,0.748796677,-2.461288337,-0.117718284,-1.418349706,2.982693825,-1.008718598,2.64835222,-0.167633635,-0.440398188,-2.856543738,-3.192587243,0.926757724,-2.200033454,0.954401773,-2.190308918,1.83639591,-1.516452306,-1.937676836,-0.373403436,-0.200681275,-3.414600778,0.626614001,-1.407495154,-0.343760567,0.022254156,-0.41392285,0.448739068,0.9372067,0.236391704,0.899602298,-1.840965967,1.330175033,0.547371562,-2.190559117,-0.488373493,-1.197244845,-1.826662527,-2.005612538,-0.500050249,0.911557267,-2.767656789,-0.905855872,-0.014343016,0.511891318,-2.098055413,-0.662519884,-1.293092756,-2.863814294,-1.663455622,-2.400252419,-1.504177036,0.290723244,-1.291998642,-2.695632898,-1.096324252,-0.381541975,-2.160034243,1.898501852,2.564044479,0.212270389,1.6491621,-1.106794683,-0.333717039,-2.369694456,-1.620049418,-0.957271195,1.139927539,-3.171916507,1.16008224,-1.153377773,-0.039792339,-0.492865824,0.762714996,0.048497603
060045d7682d9df6168c3146fa0967e4,0.283057841,-1.402360842,-4.795145062,-0.908780722,0.511426061,-0.394114242,-1.289953858,-3.599772705,-1.767343537,-0.455434367,-0.562848867,-2.474061323,0.33010416,-0.479539186,-0.643408567,-0.786279151,-0.82392091,-3.527783665,1.914381606,-1.169519269,-1.73148675,-1.474644596,-1.917946651,-0.487574209,-1.620652636,0.765281063,-1.839451616,0.054826484,-0.496595488,-1.666203176,0.885331861,0.641912549,0.185728973,-1.793312133,-6.483700935,0.142067089,2.97117503,0.933280524,-1.478226375,0.886244464,-2.596417161,-2.911874399,-2.64907896,-4.562326034,-0.235030739,-3.01590106,-1.214644269,-1.983119899,-0.67696441,-2.366609927,-1.676228146,-1.975668242,-2.649676934,-5.880189687,-1.968356675,0.580424984,-1.41383074,-2.051451748,0.808726707,-3.215450473,-1.129738773,2.161240327,-1.687485571,-3.169897784,-1.128500194,-0.894278563,-3.953867814,-3.321777372,-0.721972722,-2.466764563,-2.507823351,-0.313214179,-0.683304905,-1.386954485,-1.653407945,-2.529720909,-0.880645036,0.715015048,-0.29141091,-2.330881903,-2.23909834,0.347838224,0.834855013,-3.29426217,-0.9800649,-1.492716584,-0.604539118,-1.811945423,0.973611173,0.65631168,-0.336728901,-2.074926423,0.014198165,-1.220915455,-1.169489285,-3.05555822,-2.523784865,-2.861236296,-1.663977461,-3.632043282,0.348771132,-3.947992989,-1.620289155,-2.311402892,1.099634843,-3.470060761,-3.476409891,0.591423652,-1.28278643,-0.808183368,-0.699360437,-0.345856284,0.635201975,-2.345989689,2.765781452,-2.053498977,-0.617008035,-3.685147266,-0.680085991,-1.553622946,-4.978173809,0.084385014,1.130674032,-0.203382941,-0.410213863,-2.809604614,-1.0945016,-3.027752569,0.933717491,0.321344412,-1.947954964,-0.672361069,-0.371572322,-1.681427568,-3.102245625,-3.208618284,-1.236179166,-0.195246777,-1.27068859,-3.140177824,-0.592117596,-1.633366908,-2.730936635,-1.093436584,-1.412775456,-3.579389525,-0.514292288,-0.909767189,0.231206277,-2.032243035,-0.363986015,-1.396233893,-0.128591089,-1.329702258,-0.856344569,-3.30288489,-2.743936813,-1.138107395,-0.737245745,0.041912311,-1.681050704,-3.363926215,-1.121254115,-1.410668707,-0.038564991,-0.274319842,-0.934473374,-5.021708009,0.678118272,-4.005846167,-0.204130887,-3.553263492,-0.297974203,0.026454088,-3.848119355,-3.782211212,-1.914168677,1.698882976,-0.243888849,0.257881702,-2.000405372,-0.773670002,-0.399735166,-0.137116728,-2.731525587,0.512974954,-2.629822265,-1.632614782,-1.826313453,-0.313501662,-2.046231061,-1.968097097,-1.226217655,-2.286479786,-0.468126533,-0.634616678,-0.838977758,-3.916406872,-1.235874184,-2.885031862,-1.55223289,-0.018984563,-1.128000588,-0.876655258,-0.903125518,0.348468846,-1.549814068,1.346252006,2.278794042,0.036218483,-0.475648069,-0.968119198,-3.173905334,-3.424488078,-2.320652611,0.615064335,-1.57398616,-1.217923573,-2.281091533,-0.871747506,-1.304346887,-1.688650361,0.768803253,-2.314869257,-1.9219532,-1.606625526,-4.298221098,0.56406708,-1.859390841,-4.723121896,-3.732994814,-1.143957711,-3.163869801,-0.184069069,-2.437536083,-3.240859282,-3.057364177,-1.542486153,-2.495460014,-2.727326125,0.420409455,-0.443845242,-3.704657431,-0.940571228,-1.88450954,-3.815705373,-1.103641694,-2.574713811,-3.017770257,-4.00753102,-1.218078712,-0.853720685,-0.132867483,-0.828792144,-1.817621972,-1.492461985,-2.214492106,-1.653882904,1.170330062,-2.891864701,-0.199803799,-1.546453366,-2.665547078,-1.874875485,-0.70134033,-3.582747674,0.14412347,-1.314732837,-1.6251239,-2.129248599,-1.6027192,-2.580651047,-2.030849244,-1.221228213,-3.448355396,-1.097556497,-3.158129209,-3.088883544,0.155315631,0.724515172,-0.253646852,-4.221943353,-1.162723759,-2.38597885,-0.252389516,-0.800201826,0.050861788,-1.643919604,-3.596537065,-1.868781249,2.358950443,-3.033720636,0.344455387,2.301556433,-1.365622439,-1.335602143,-2.424620858,-0.907869279,-3.156068678,-1.58346425,-1.105148124,-3.226803687,-1.255267143,1.424155075,-1.245970912,-3.330733705,-0.281284847,0.741841453,-1.291812742,-2.866551744,-0.657214288,-0.778289632,-1.335956745,-2.54579792,-0.876015576,-3.037981864,-0.605188116,-3.905283567,-0.052226405,0.544973528,0.618779399,-1.938861738,-1.092044641,-0.643034653,-1.834808076,-1.208200745,-0.954422164,-4.058444711,-3.160633945,-2.219952296,-1.509851885,1.368685733,-1.527261757,-2.142588428,-1.701790981,-0.610746904,-2.734921576,-1.68206305,-3.251005742,-3.711412262,-2.686970387,0.532556103,-3.560778018,-2.173074907
070509adb6a8c7f66ceb5a3c5a981c8a,3.245432595,-0.555434119,-4.770925772,2.756827507,3.95298379,1.998335109,1.072400928,-3.632333202,1.604091057,0.659776934,1.816587954,-1.772878138,3.132585364,1.843244211,1.784184072,-1.129880993,1.524846164,-1.576399667,3.953854808,0.504861496,-1.238598227,0.356395036,-0.331887154,0.403469916,-0.655911117,3.777763595,0.931171583,2.017137533,1.033443383,-1.052640919,1.496126756,2.828884339,1.919604662,0.050919634,-7.600032238,3.323356486,4.589328109,3.216332643,-1.89080882,3.542170963,-2.531945302,-1.27118389,-3.136186345,-3.509346732,1.47416657,-2.448781126,-0.349487961,-1.567022455,0.235553199,-1.16136931,-0.845292329,0.190072318,-1.004334788,-7.705453403,-0.022980581,4.124102352,-0.483539698,-0.309318027,1.574503398,-2.710224632,2.034865737,2.779042321,-0.761920364,-3.043667656,1.49309792,-0.071343409,-5.236061904,-3.124417873,0.316213784,-0.444107367,-1.846246361,0.194729012,2.32445741,0.420044745,0.681502918,-1.092165618,-0.19827633,1.828793427,1.170593269,-1.43351529,-2.39510557,-0.089014933,2.562030837,-1.585729434,-0.068369563,-0.329572563,0.433316624,-1.090229903,3.067839287,2.870487489,2.551295497,-0.856619634,2.489909645,-0.987127699,-0.168877271,-1.351412628,-1.994177662,-2.278594223,0.073314472,-3.276151674,1.894068491,-3.598883067,0.27607517,-1.248613916,3.822033418,-2.412468226,-3.748667152,1.003558146,1.010467268,0.322363907,3.821744601,0.41420392,3.539915432,-1.815254367,5.691615228,-0.792967759,1.234958003,-2.949208019,-0.039306406,0.305055644,-4.203716627,2.507308936,2.837842795,2.446586729,1.015209822,-0.964777463,-0.450211723,-1.711529207,2.253875494,2.216022701,-0.197712638,0.978926447,0.331141197,-0.266724838,-1.465587836,-1.077704752,0.304269535,1.511108298,-0.872854186,-2.995308786,1.626556474,0.276521662,-1.532350639,-0.208373221,-0.014278393,-3.600015876,1.769614054,0.543794005,1.771963465,-0.11353097,0.334126583,1.170575902,2.957119124,0.086379667,0.223345884,-2.875014606,-1.2634887,0.744059784,1.188611491,1.135395861,-1.086282558,-5.25062949,1.312759398,-0.869941575,2.207992874,0.999958617,0.431160763,-6.742706753,3.680278564,-3.295483632,0.553250784,-3.230329036,0.029522125,0.741027185,-3.642471855,-2.508307863,-1.43571411,6.184399937,2.881571124,2.537314595,-0.559898552,0.774362314,-0.19542175,1.363305747,-1.013378487,2.333097564,-1.627566476,-0.118905546,-0.59910213,1.930805975,-0.840621347,0.28446506,0.185440393,-1.330746066,0.366876537,2.984255693,-0.317522479,-4.613116045,-0.604544556,-2.297896179,-0.252794055,1.737865005,0.510960292,1.539656245,0.28778075,1.760133553,-0.872834129,4.659202614,5.325556907,1.113212644,0.519356985,0.565664561,-3.22141677,-1.407609037,-0.477123645,3.957914349,-0.328308262,0.17724287,-1.153166914,-0.532856451,-0.477674832,-1.857702559,2.78066961,-1.992348473,-0.606413383,-0.4788711,-1.434426856,1.966773664,-1.069568789,-4.301301032,-3.145534375,0.841248442,-2.846539054,0.77629838,-0.931756987,-3.429967093,-2.964845747,-0.506493573,-1.866794085,-1.396567942,2.364129668,1.660322157,-4.432758449,1.32848432,0.1879625,-2.988301514,0.465767455,0.538006029,-1.404285818,-3.205265712,1.573349676,1.093443898,1.063435781,0.815928094,-0.73822902,1.13810077,-0.327493353,0.017485808,3.151496993,-2.470795555,1.65596928,-0.711696034,-3.230397438,0.338021982,1.039058219,-1.761464557,1.101387239,-1.013575392,0.042890426,0.14858995,0.777400336,-3.138096356,0.018915102,-1.221016067,-0.722376589,0.557919304,-1.985408918,-2.653461083,3.457096896,1.262452871,-0.485690067,-4.499707611,-0.779861537,0.19135679,0.901364996,1.635611693,1.685659432,-1.630233847,-3.100602436,-0.252537645,3.53720672,-2.897321231,3.355331989,5.1740927,0.283993277,0.156118152,-1.019813863,1.644383805,-3.592888896,0.464150066,0.089429362,-2.750832695,0.819884287,3.656175688,-0.742965112,-4.177390674,2.872980375,2.388517733,-0.633045962,-2.119434233,1.301840837,0.755705181,-0.263730164,0.070312378,1.08958103,-3.24695373,1.596490244,-6.184732654,0.529654899,1.473123542,3.256090905,-0.673434481,0.237049114,-0.787292172,-0.546939973,1.03482342,-0.374262748,-3.363659916,-1.268782669,-0.119723056,1.500352168,2.130111743,-0.039366726,-2.565721912,-2.446185779,0.428278577,-1.504581464,-2.259728112,-2.510104489,-2.487169416,-1.78283994,2.896713097,-3.689786701,-1.089168503
08029cb9a88951ea50b93d0a9e210af2,-0.486837708,0.739139508,1.27887637,-0.830599283,-0.757936415,-0.116479034,-0.074740925,1.256787567,-0.842599373,0.67049057,-0.106104709,0.803586377,-0.222855777,-0.160886669,-0.139182987,1.49437949,-0.106950562,-0.007235829,0.110836771,0.159127589,1.043246369,0.177304108,0.278710494,0.660254838,0.712045432,-0.297612799,-0.391929495,0.180030919,0.31105334,0.916804281,0.98686847,0.035069637,0.202089083,0.061140361,1.728961201,-0.382684815,0.493993837,0.024800339,1.511895597,-0.168239198,1.124488156,0.214131168,1.479594729,0.611459613,0.20030258,0.828985409,0.813103716,0.984226653,0.741120745,0.510795461,0.793129395,-0.045880196,0.318171834,2.241939259,0.15140203,-0.724644947,0.779236158,0.143408544,0.956327266,0.791461075,-0.575219249,0.864662063,0.657357879,1.154084644,-0.326399499,0.872556316,1.917992798,1.040755768,0.655615805,0.206073281,0.852951029,0.953537427,-0.485611249,0.1822883,-0.0655799,0.197703325,0.85035673,0.60626571,0.456977598,0.792195258,1.435953679,1.512319857,0.303337655,0.085448924,0.739174066,0.562448581,0.584891326,0.645383221,0.132736254,-0.018039767,-0.335303595,0.5251141,-0.143077978,1.154598418,0.641758655,0.242761928,0.942375381,0.86766265,0.321236078,0.892461856,0.466243711,0.84432584,0.127790101,0.621407941,-0.283312992,0.720146445,1.396517505,1.224254235,-0.019206932,0.693358923,-1.348909924,0.78087415,-0.414776114,1.053046507,-0.332367921,0.451804434,0.172599442,0.747882356,0.795231303,0.094680663,0.796929718,-0.174424524,0.26444592,-0.400794054,0.426424882,0.138246251,0.826720891,0.548678014,0.524741948,0.232689768,0.246239859,0.31579814,0.714706327,0.460778703,0.311940912,-0.147759171,0.356407139,0.252273846,0.950849575,0.927879829,-0.019090464,0.214068111,0.559164832,0.697931701,0.436792373,1.362609231,-0.008745345,0.464893526,0.555192751,0.023543672,0.877195014,-0.280180123,-0.572987024,0.366589537,0.670046606,0.909143023,0.275215299,0.12320505,0.094571823,0.6221056,0.95487001,2.306114169,-0.129667887,0.817181905,-0.00077066,0.522753189,0.48068963,2.188218424,-0.5238137,0.84235118,0.922864569,1.1190037,1.200794407,1.066355483,0.928953967,0.452295353,0.913365767,-1.38297306,-0.625215499,0.06719083,0.415846434,0.326053954,1.125818177,0.515848206,0.271348755,0.086524223,0.68512871,0.375355346,0.537037616,0.017192776,0.699460513,-0.140370974,0.418246839,0.598878736,0.809119474,-0.853328392,0.932073107,1.62435409,0.92355709,0.950186837,0.505616268,0.191295669,0.219995615,-0.165635025,0.471507873,0.473101294,0.974531908,-0.641975553,-0.441269817,0.711015543,0.711926697,0.378874531,1.23732388,0.05757391,0.06747525,-0.671592592,0.544456435,0.434180865,0.577323118,0.998589099,0.726971347,1.223627066,0.044635405,0.97985724,0.469102028,0.591656111,-0.315092439,0.525882941,0.853294784,0.880678815,0.757292362,0.156976423,1.114213105,0.781195454,0.367602937,1.250345057,1.157662558,0.619399745,0.857558743,0.35212248,0.041987139,0.037478274,1.60457449,0.034953833,0.031151937,0.712707394,0.328772637,-0.634874348,0.249573549,0.751390126,-0.452774905,0.121358356,0.604383536,0.226357034,0.627121465,-0.170208802,0.174521962,0.261100057,0.184915057,0.990923414,0.399547393,0.863521433,1.586078208,-0.05312334,0.19979279,0.009709379,0.681074066,1.203849616,0.329267618,-0.157625528,-0.14072647,1.495240298,-0.013868451,1.309510468,-0.350476389,0.255192991,0.68138154,0.968362485,-0.694121497,1.004400255,1.409396205,1.422827576,1.005873147,-0.318439153,0.565485412,-0.031781293,0.324527371,1.230216066,0.868407973,0.27525326,0.668655738,1.22736242,-0.557703193,-0.231973336,0.31294574,0.390482129,0.423149591,-0.184385002,1.570552888,0.094557774,0.500599687,1.036804321,0.078761312,-0.01140708,1.044998154,1.719096392,-0.733828736,0.331759519,0.934662673,0.856517717,-0.035782977,0.36551965,0.695081683,-0.386245129,-0.014758238,1.360574402,-0.091353675,2.498320562,1.003191804,0.76457778,-0.297142488,0.540125827,0.451629058,1.360912317,0.433572084,-0.096324205,0.88851517,0.866509337,0.195123092,-0.039090076,-0.47618456,1.034828178,0.384291305,1.451488483,1.755025176,0.709090518,0.562491554,1.528845165,0.844499469,0.320771131,0.69538072,-0.046691654,1.370605745,0.625300495
086585ab0654c55c3536a3b17977f340,-0.82771898,-1.239408428,-3.809920301,-2.211272188,-0.883898877,-1.070103943,-1.833668273,-2.775619224,-3.238856394,-0.311998921,-1.206422233,-2.196555182,-0.326722501,-1.298762463,-1.31368301,0.144628176,-1.471979404,-4.060876589,1.330877285,-1.703841129,-1.13644766,-1.830594417,-2.198734969,-0.527128779,-1.412234157,0.061023361,-2.751909452,-0.301277776,-0.841899841,-1.259992064,1.270294271,0.090992027,-0.305201164,-2.37562738,-5.201729958,-0.581491573,2.851237442,0.41156581,-0.510262439,0.19712697,-2.067035096,-3.241489618,-1.725062428,-4.311980754,-0.713488618,-2.749048117,-0.884011232,-1.550230478,-0.503530846,-2.37505299,-1.389166739,-2.54619079,-2.750259868,-4.040662579,-2.271254756,-0.673943964,-1.094859412,-2.508019175,1.250735755,-3.060381174,-2.20545003,2.201886326,-1.619414792,-2.495027067,-2.045187589,-0.48561024,-2.561650359,-2.827981092,-0.635393519,-2.550347629,-2.146812435,0.003789313,-1.709223607,-1.753461283,-2.173542652,-3.047336014,-0.617097318,0.648956943,-0.375982484,-1.940659523,-1.202971126,1.1702962,0.529834212,-3.827632211,-0.781171628,-1.487133412,-0.6931761,-1.91063826,0.550209555,-0.002089739,-1.135364879,-2.066489076,-0.687478655,-0.590286142,-1.12215312,-3.260628439,-2.063969737,-2.506206144,-1.757210886,-3.337532616,0.309073464,-3.73190333,-2.026237408,-2.183395797,0.197742917,-3.046172722,-2.534038164,1.383958704,-1.751487469,-0.578009633,-2.532728876,-0.212602042,-0.385346572,-1.646397827,1.797935919,-2.184356902,-1.031311194,-3.425091168,-0.590270876,-2.057896235,-4.49664177,-0.714054552,0.71972268,-1.328805247,-0.5843949,-3.140818567,-0.899138341,-2.848733906,0.821172543,0.013992103,-2.181036834,-0.901116061,-0.424686537,-1.708935029,-3.197407736,-3.943873267,-1.427965389,-0.555585245,-0.959443005,-2.941968923,-1.167360069,-1.844778899,-2.62150364,-1.008891329,-1.506820774,-2.532398626,-1.024094495,-0.941793378,0.384218268,-2.629226908,-0.079299918,-2.237220562,-1.328888381,-1.582712358,-0.696572979,-2.933746571,-3.04609145,-1.59737147,-1.258108653,0.035372076,-1.20500498,-1.571568859,-1.738167109,-1.299208886,-0.575499142,-0.348152862,-0.997479526,-3.277275143,-0.512770112,-3.536714713,0.220802491,-2.791776391,0.437256646,0.720381723,-3.553527512,-3.783024355,-1.596804637,-0.397236513,-1.50455732,-0.138912193,-2.077686464,-1.049478862,0.083860033,-0.073837679,-2.881956508,-0.175212342,-2.38692918,-1.773080559,-1.814484093,-0.802002028,-1.667124001,-2.682172465,-1.374045902,-2.285440991,-0.221118014,-2.043092561,-0.519823089,-2.748690869,-0.817360876,-2.343672429,-1.564203638,-0.498202973,-1.556604264,-1.602445917,-1.098578056,0.214558439,-0.980890344,0.052184011,1.197407339,0.217337232,-0.327486184,-1.128791668,-2.440950342,-3.778262991,-2.851498117,-0.657115814,-1.534587138,-1.341592548,-2.216506216,-0.535612664,-1.181883119,-1.169112212,0.10250658,-1.928679979,-1.975516708,-1.550254665,-4.815743448,0.526920662,-1.44811592,-4.323633633,-3.553766843,-1.457476015,-2.438310817,0.07702684,-2.546837739,-2.576946459,-2.402007871,-1.484783324,-2.156114507,-2.970572822,-0.273134872,-0.97340933,-2.624322269,-1.321856335,-2.356871885,-3.554696344,-1.342283677,-3.71071678,-3.272951892,-3.66263877,-2.280049214,-1.290828062,-0.094751047,-1.259958547,-1.694998846,-2.041620184,-2.490141308,-1.946628084,0.760279098,-2.378463201,-0.135178392,-1.092458139,-1.570566186,-2.432797016,-1.121512317,-4.162564727,0.155268041,-0.523570388,-1.75921945,-2.847003063,-2.242809903,-1.677946755,-2.613610374,-0.416597217,-4.185598043,-1.431990699,-2.777075749,-2.606419296,-1.164657258,1.11282596,0.543255505,-3.159868937,-0.758293542,-3.222258597,-0.31469728,-1.222913374,-0.226652857,-0.977526954,-3.244287405,-2.127180543,2.363016877,-2.198606577,-0.895189061,1.542360841,-1.560265265,-1.481171446,-2.485169329,-1.570495427,-1.975358491,-1.953836094,-1.234575533,-2.549442259,-1.667465588,0.747468214,-0.666328154,-2.094372981,-1.759857237,0.453010188,-0.83260327,-2.416973526,-1.44884095,-0.971891776,-1.108804933,-3.499072773,-1.587333964,-2.154371954,-1.332699448,-1.94180781,0.409766205,0.699986525,-0.331752593,-1.869318515,-1.231225026,0.125397281,-1.991895931,-1.886739272,-0.664411992,-3.540285779,-3.320792914,-2.807251496,-2.462563611,1.940489496,-1.677983043,-1.278273299,-0.435029976,-0.432665511,-2.589758744,-0.781608745,-2.79729578,-4.03132424,-2.484454496,-0.066172355,-2.565156269,-2.03414366
0a1775972227f8203c8b7601b5ee5af7,1.525295011,0.599011934,-2.287702946,0.062364834,1.709745293,0.592137527,-0.300615977,-0.822473133,2.479026935,-0.314045101,0.394767761,0.300035848,-1.194067328,1.937425037,0.392131747,-0.254112972,0.54283386,1.209362419,1.41742695,2.429319289,-1.184078736,0.454170896,0.875998739,1.956305526,-0.227619872,-1.677374957,0.763721935,-0.026186943,1.632073386,-0.271518808,-0.013484359,0.528723849,1.913107702,2.073037752,0.075175003,-2.243161691,-0.278173345,-0.069644596,-0.273961563,-0.335170335,1.011873843,0.988578789,0.314156438,-1.000061816,1.903475073,0.908071434,-0.717025662,0.321779409,0.276191815,0.380497996,-0.267315502,0.671403772,-0.730294895,-1.159523484,-0.419215145,0.250019024,-0.902972149,1.543750891,-1.073174173,1.982694537,0.399386631,2.559114263,0.970822656,-0.339073034,1.422051827,-1.114152193,0.02402241,0.709642465,0.406235861,-2.385088382,-0.161477193,0.86869515,0.683808358,0.632570273,-0.376374357,3.215365081,0.533454157,1.284179861,-0.023720757,-1.332656164,-1.848910498,0.97202776,0.575509042,2.212211076,0.075318427,0.482165008,1.719285011,3.035188102,-0.031755006,1.221847677,-0.510068189,0.213998865,0.458766533,-0.38365333,0.840491798,-0.202763477,-0.358559676,0.193845266,-1.124773945,1.539929864,-0.677000392,2.134484714,0.554476471,-0.052908789,0.980679843,-2.273202658,-0.719471324,-2.250127565,-0.578647685,-1.034030129,0.537019112,1.203638387,1.102391583,-2.142738389,0.698565937,1.081801236,0.83495246,0.247395573,2.004837209,1.437985826,-1.59950403,1.388153095,1.448110625,2.891807297,0.788721313,0.163272586,1.189038147,-1.47748228,0.799341632,-0.10441645,-0.146145377,0.26392228,2.821631976,-0.298843943,-0.748635703,1.994168361,0.424687275,1.034513671,1.318962603,3.125125568,0.543131241,-0.944316563,-0.477525051,1.035054886,0.263633365,-2.518910879,-0.206058209,-0.401175785,-2.091654788,1.87200954,0.336751945,1.074728939,1.682954942,1.381961022,-0.312218598,0.700409162,1.432280466,1.025366815,1.321003512,0.903693021,-0.714167639,-0.483853896,-0.045134947,2.226887705,0.15733009,0.658604365,0.187304859,-0.849205397,1.973181887,-1.213044249,-0.94457906,-1.793613432,-1.508942231,-2.762101416,2.136141124,-0.000231051,0.92953593,2.717875856,1.958040831,-1.001780896,-0.048783013,1.030608402,0.860670319,-1.273979209,-0.656186893,3.032671206,-0.670560648,0.137143851,0.166860599,-0.199440393,-2.487946718,1.384994075,0.620882016,1.326050172,0.054172119,1.05127198,0.777734305,-0.685479274,-0.426452592,-1.21026589,0.054491931,1.723326763,1.788748675,0.844800236,1.87564101,0.572115614,-1.733682206,1.510633961,1.031681417,-0.426068643,0.139015421,0.227687112,-0.065065828,-0.384514741,1.673938737,1.193844191,-0.111145068,0.507882738,0.160081735,1.39208676,0.982269628,2.064478036,2.10291181,1.034012209,0.28447117,0.242507097,-2.632358567,-0.104062741,-1.034078066,0.449562795,1.448780592,-0.475392787,-1.492534562,-0.55200264,-0.089973508,1.021176809,-0.055197615,0.602760047,0.136989202,1.603701055,2.568366276,0.667698059,0.102069939,-1.122275362,0.322886035,-0.137436212,0.65900206,1.003448258,0.538111193,-0.667271142,1.806978326,0.607089168,0.14898335,1.794987614,-0.064798282,-1.355739745,-0.393949166,0.635067739,0.338175235,-0.328739316,-2.728438679,-1.527420911,-0.637618423,0.389024983,1.324844989,2.080606543,1.332354133,-1.852689984,-0.535520035,1.301725297,0.326054888,0.76090263,1.232919048,-0.728818478,-0.416470248,1.019587945,-2.402919294,-0.161663623,1.699894059,0.249147719,0.303350256,-1.619702821,0.695279307,0.956163512,1.060697426,-1.484564104,0.721686409,0.230314541,0.537513948,0.583410295,0.559051628,-1.567234838,2.290004677,-0.649621099,-0.004494976,0.275821564,-0.041793195,-0.180065097,-1.809521873,-0.324173205,1.369396702,-1.782548443,-0.111617406,1.309090895,-1.096751383,-0.569810644,3.460501493,0.776550551,-0.839071661,-1.177451186,3.202732559,0.474054575,-0.792709046,1.665740767,2.565022673,-0.526553082,1.735421703,-0.176596103,-0.500462334,0.391364355,1.666463723,-0.428451,0.894974209,0.149996274,1.169238084,1.187333897,0.744375251,-1.517627757,-1.306167942,1.054259967,0.103403753,-2.000041107,0.323800937,0.51999281,-1.149263548,-0.26478685,-0.874646,0.891308554,-1.20033589,2.571070139,0.024480121,0.161821539,-1.700800508,-0.213525046
0a2a1ed7a26ad20fd32c3f112f9bce81,-1.710732452,-0.788931066,-0.192676873,-1.926805496,-1.838185209,-1.674049406,-1.622669834,-0.110068184,-0.202517259,-1.816840036,-1.680852429,-0.324158564,-3.046288112,-0.944802013,-1.651535246,-1.294202487,-1.459390314,0.431237267,-2.448605336,-0.185699558,-1.415412157,-1.034974191,-0.530649851,-0.624613074,-1.107904137,-3.566060125,-0.882181712,-2.136583986,-0.918898273,-1.027826422,-2.289827081,-2.230818708,-1.192166634,-0.060398268,2.138373877,-3.545267866,-3.772624576,-2.708206584,-0.912669084,-2.887420932,0.234520196,0.061804874,0.032520329,0.093342354,-0.965067544,0.304870372,-1.550027801,-0.517901018,-1.362494979,-0.452570836,-1.064969807,-0.72692497,-0.941654395,1.359395267,-1.220747799,-2.621080567,-1.548889461,-0.160566771,-2.810588527,0.958967189,-1.536670651,-1.714011514,-0.470538604,-0.134648034,-0.914658022,-1.912176952,0.77700653,0.449559819,-1.304322805,-1.945300754,-0.526647807,-1.176035654,-1.603164596,-0.989982544,-1.455508022,0.991477037,-1.0752,-1.667954922,-1.838464758,-1.257128733,-1.333635647,-1.282356201,-2.213746691,0.860166898,-1.301534356,-0.864477334,-0.711510944,0.665900934,-2.670534447,-1.896256452,-2.361439829,-0.694842551,-1.98094218,-1.246815833,-0.831039597,-0.467326644,-0.585310506,-0.138130793,-1.694940789,1.000329961,-2.533185905,1.463453984,-0.920903503,-0.666635168,-2.368963443,-1.136886676,-0.070586029,-3.200151015,-1.751091635,-1.985626943,-1.993466959,-1.052499208,-2.098542672,-1.570932614,-3.464966171,-0.281848351,-1.315697364,0.303379716,-0.441534436,-0.514041304,0.08491158,-1.554326663,-1.944900454,-0.694811023,-1.360931074,-0.459587661,-0.623732296,-1.02730474,-2.071564845,-2.30592691,-1.055958849,-1.531037294,-0.223174653,-1.201415164,-0.699591901,0.608120953,-1.114831046,-1.421246234,-0.414311237,1.558289895,-1.552132458,-1.657021051,-0.673886549,-0.752115945,-1.07336208,-0.956540966,-1.980595709,-1.686427975,-3.165863429,-0.045007364,-1.450750815,-0.926861952,-1.426501316,-0.562176601,-1.597495578,0.384970912,0.215023823,-0.947002953,-1.026879111,-1.482255771,-1.23451261,0.323118801,-1.607037144,0.090365715,-2.058778056,-1.470175755,-1.360197895,1.019846787,-1.712218429,-0.23950709,-2.189945375,-0.687436696,-2.327120961,-3.207595185,1.439541634,0.119915446,-0.267596005,-2.211740942,-1.244702859,-2.795858758,-0.913467892,-1.072347347,-1.067663803,-2.551384242,-0.873596918,-0.842320271,-0.784709387,-1.036571349,-0.849545539,-2.081365907,-2.046732764,-0.397021134,-0.995897264,0.025962828,-1.566761083,-1.573952238,-0.939442207,0.277511786,-1.349842996,-0.822378056,-1.076063572,-1.182118052,-0.518421609,-1.295031562,-0.510164408,-1.878386063,-1.828976376,-2.361984572,-3.063295878,-2.136763608,-1.55466425,-1.359489555,0.040916397,-0.427870082,0.028153577,-2.134813424,-1.136325774,-1.053662047,-0.586006489,-0.577571432,-0.651637,0.311113115,-1.480812033,0.032418336,-0.764985767,-0.91572717,-1.242247657,-2.330126016,-1.34096088,1.035492402,0.956124229,-1.708661102,-0.751656406,-2.051392009,-0.708438647,0.646681339,-0.050181492,-0.757562841,-0.374720044,0.32387489,-1.047412599,-1.553287253,0.562788243,-2.206365961,-0.930360708,0.162235,-1.078131954,-0.443436519,-0.102366379,0.007555763,-0.713663671,-1.322783174,-1.782273142,-0.679449511,-0.947003809,-2.092132977,-1.062345047,-0.804184508,-2.566682525,-0.346521375,-3.31352644,-1.770318258,-0.409594034,-0.93273926,-1.007172551,0.918315662,-1.292616918,-1.937339224,-1.40604137,-0.358452574,-1.15253602,0.23212014,-0.392007627,-1.368200913,-0.584346017,-0.923389389,-1.386519437,-0.156913204,-1.624519263,-2.059369605,-1.336396038,-0.116951657,-0.774409417,-0.455431959,-1.259638038,-2.495885213,-1.691218016,-0.6640233,0.447726689,-0.714742469,-2.936435366,-0.820560509,-1.373592976,-3.866399083,-1.283247827,-1.123773457,-0.669916044,-1.817672893,-0.748187154,-1.410367226,-0.64483615,-0.897090827,-1.48749041,-2.278475182,-1.642063355,0.044035353,-0.484365414,-2.048643,-1.526288252,-0.850786718,-0.143303963,-1.345344969,-1.565437802,-0.021557201,-0.348825016,-0.229713073,-0.958991278,0.857876572,-2.013260123,-1.975552322,-1.75361875,-1.099395796,-0.917185517,-1.213479918,-0.3680149,-0.905713629,-0.913857551,-0.360261545,-1.001284657,-0.389273705,-1.438363395,-3.573600518,-0.993818543,-0.150528137,-1.147378202,-1.688432613,-0.878074632,-0.18830591,-0.655664319,1.361779474,-0.389667623,-2.389854048,-0.542750703,-0.824520916
0a823fd294075990a4080100d7562a1c,1.780576213,1.098782324,-2.400942222,-0.206746686,1.857199034,0.896371982,-0.211742863,-0.637394249,1.808137117,0.49537377,0.664439494,0.512914207,-0.627760296,2.117904282,0.618520403,0.946669997,0.721478248,0.547325465,2.557932222,2.557827616,-0.515804035,0.599250194,0.918212744,2.632271311,0.230426467,-0.994074216,0.428868462,0.636435095,2.110904895,0.297071434,1.401623751,1.26401171,2.527467724,1.961817064,-0.422032417,-1.780393848,1.518263759,0.784431918,0.717291069,0.394574591,1.341878309,0.661920014,0.881124995,-1.505706375,2.384760018,0.928795606,-0.042924799,0.798869683,1.029437045,0.447293701,0.22115535,0.510182654,-0.815766508,-1.09725532,-0.405577621,0.514153427,-0.302669845,1.42714201,0.356292416,1.862373576,0.201344265,4.179460908,1.314345964,-0.106797617,1.323835226,-0.28128014,0.448471975,0.773561898,1.089746012,-2.393233931,0.094632739,1.833616256,0.666805421,0.800325373,-0.395105424,2.895314181,1.275141114,2.352700443,0.695263602,-0.994514803,-1.067116453,2.48255054,1.532717316,1.624182793,0.744594736,0.850900124,2.325529163,3.224848523,0.898519844,1.890219553,-0.261127234,0.389715096,0.884769288,0.479461546,1.345014179,-0.494489705,-0.044903906,0.325173791,-0.871852465,1.368625181,0.289456376,1.806782805,0.618575304,0.120591159,1.644441284,-2.295628372,-0.418859318,-0.667154784,-0.438302501,-0.28623733,-0.000296946,2.041368209,1.534654307,-1.610453291,1.884339549,1.172592202,1.230400217,0.040374528,2.698251394,1.460598159,-2.097089279,1.776122655,2.437555491,2.968379042,1.407773938,-0.123894162,1.812922179,-1.512715282,1.913023749,0.679379278,-0.081252605,0.762316083,3.52752865,-0.013491618,-0.984112425,1.308718784,0.75437909,1.60810495,1.958364911,3.056107539,0.844715345,-0.757675689,-0.457601356,1.588817427,0.598286425,-2.183219783,0.165558981,0.143562194,-1.039558926,1.671036135,1.264485102,0.934634503,1.739205142,1.638591245,0.374840297,0.691181736,1.181826815,1.216888213,1.607254957,1.783070755,-0.105132713,0.399678789,0.054469351,2.686451838,0.673494085,1.388895258,0.701835936,-0.557812266,2.30939761,-1.391516278,0.131018093,-1.632389515,-0.265218353,-1.432553393,1.89261457,-0.406617256,1.35466528,2.81658387,1.939019665,-0.295322734,0.097962871,1.462559618,1.902816521,-0.405298567,-0.802028939,3.63143078,-0.530139768,0.366880085,0.426783338,0.254496209,-2.059549286,1.133295278,0.981717305,1.423719664,0.924434247,0.803968908,1.567510082,-0.389559176,0.297720386,-0.964568456,0.3938326,2.277360477,2.000349211,0.955157954,2.3144974,1.473189092,-1.018674718,2.004120136,1.980800397,0.575018063,0.943316938,0.668890505,0.20222483,-0.893839996,1.419014685,1.45791592,0.254552925,0.887458972,0.301025397,2.180110007,1.489493762,2.692116271,2.80319884,1.36883975,0.472291864,0.606499279,-3.537451593,0.933451248,-0.524796295,-0.018638295,1.171391138,-0.189597499,-1.222830348,0.425286736,-0.11143153,1.219082615,0.202593795,0.990034048,0.381561817,1.395814344,3.133209364,1.050310047,0.410617789,-0.807941796,0.256256294,-0.386373767,1.003243861,0.279577059,0.225746717,-0.925459866,1.585540351,0.909523002,0.999415566,2.105811666,0.272436039,-1.336409682,-0.445744101,0.756699697,1.341371805,-0.105129626,-1.876911853,-0.882652135,0.033952226,0.270770366,1.688287683,1.368984037,2.255339498,-0.915545869,-0.297974505,0.994327417,0.24866974,1.336178168,1.043428024,0.246328033,-1.178228598,1.304555162,-2.350165983,-0.025465557,1.777135026,1.612486813,1.598277862,-1.489575933,1.430593726,0.487696719,1.805659108,-1.149236233,1.430701948,0.97191371,0.419440432,0.659045983,2.228391493,-1.183548914,2.481264738,0.515225213,0.281609006,0.601778496,-0.027871774,-0.036693327,-1.246688048,-0.222413923,1.781246635,-1.563558989,0.07290726,2.225608373,-0.273724923,-0.031536895,3.28570795,1.713053079,-0.10791743,-0.984132568,3.338111809,0.959110217,-0.225584553,1.065890227,2.681704676,-0.115317666,1.935290235,0.631890417,0.648470355,1.545043761,2.136903425,-0.165709298,1.306506852,1.293972602,1.318264337,1.21469756,1.479288385,-1.681241792,-1.600781096,0.798799163,-0.145115102,-0.296810296,0.58141431,1.217705991,-0.042474144,0.513296027,-0.831449608,1.767862644,-1.132611453,1.98022493,0.118735414,0.830145697,-1.392017644,0.013466522
0abdb5e26045c78f084f4bf2713cbf33,-1.645044852,-0.462496744,4.016151253,0.549825597,-1.649639665,-1.04144671,0.245782923,2.254289567,1.9839074,-1.891547606,-0.815618101,1.09221232,-2.134290982,-0.792524189,-0.664133376,-2.32063761,-0.408321879,3.678546235,-4.82164953,-0.071365822,-0.379788773,0.274483053,0.865153613,-1.718846948,-0.144513768,-2.735047279,1.507908996,-2.113122374,-1.326575553,-0.304323279,-4.301587907,-2.829622931,-2.229367185,0.978761328,6.196925066,-1.712416305,-6.959625856,-3.299688957,-1.277712936,-2.996054009,0.956878548,2.498125418,0.588731461,4.463964424,-1.589213112,1.938833446,-0.906975562,0.137465278,-1.611555445,1.259139587,-0.140806778,1.308059025,1.868253868,4.657828967,1.032225171,-1.862213696,-0.574736009,1.256072667,-4.212612306,2.337635257,0.597881386,-6.014427534,0.072192042,1.746637361,0.357787507,-1.486161521,2.107214805,2.148551215,-1.4518709,1.6267772,1.063925281,-2.371643163,-0.170983357,0.139375678,0.794107222,2.000838437,-1.412472766,-3.565352208,-1.892818953,0.795295473,-0.093271125,-4.022473804,-3.429382739,3.284717355,-1.168742231,-0.123845331,-1.469634517,0.38058699,-3.481946471,-2.742262578,-0.944097132,0.792723955,-1.647609417,-1.274440248,-0.705268275,2.619070376,0.984129669,1.618084178,0.325155259,2.849154384,-2.934545085,3.400653233,0.556544137,1.028429302,-3.142428961,2.587556193,1.924353332,-4.240893129,0.152955877,-1.411332199,0.826432715,-2.129940783,-2.284893332,0.485558795,-5.68139394,0.896750617,-1.014651899,3.022198584,-1.572668612,0.523571099,4.872473765,-1.700772021,-3.822810705,-0.907236992,-1.628905182,2.344015764,-1.018984327,2.18011466,-3.83140546,-2.58678452,0.900921216,-1.138874109,-1.934971942,0.250511084,2.580677018,3.385551142,-0.290349548,-1.765991482,-0.896577825,2.108714701,-0.846430202,0.416391419,1.738420315,-0.880296561,-0.136402561,2.050043799,-1.015879324,-0.966197498,-2.909683166,1.382935893,-2.224208053,0.708921942,-0.876896527,-0.11099789,-1.300075283,2.268311564,2.157573607,-0.157827178,-0.723650402,-2.553950339,-0.343710862,0.695957584,0.047926129,-0.454390355,-1.764935016,-1.96506214,-0.910758898,3.400755471,-2.188952562,3.341986078,-2.597668241,2.313522172,-2.799747097,-3.203259308,3.146585553,3.503551309,0.14086133,-2.724995405,-0.657430594,-2.332726353,0.789948734,-0.953869818,-2.435187697,-2.259644759,2.059339009,-2.577198674,1.422364706,0.281548636,0.414996846,-1.36520899,0.42312006,1.434268297,-0.368796092,1.079787876,-2.010995109,0.207343736,-1.548469317,2.344958159,-1.005945086,1.49335589,0.002814706,-1.91944631,-0.235626093,-0.244380728,-0.8939355,-2.859368686,-0.616233329,-3.069239161,-4.801427541,-2.716398078,-1.883552523,-0.746276262,1.671740678,3.374718851,1.760817206,-1.951551319,-0.021190963,-0.407760506,1.061324353,-1.54378985,-0.593966064,-0.506515252,-2.957145098,0.674561485,0.621445674,-0.000427299,5.058108011,-3.287024664,0.020616513,4.47474561,3.139484257,-0.254207982,1.72501675,-2.453746038,1.520520826,1.812905988,1.575201301,-0.13165625,1.066396493,2.055152966,-2.401836855,-1.156530923,2.090956464,-0.477151059,1.059792351,3.238595721,-0.455343136,2.903260386,2.584152613,3.457991062,0.650562875,-0.611784746,-2.297114421,-0.702786752,0.254598384,0.619293261,1.383389946,0.495251033,-3.815094313,1.49744878,-2.096000597,-0.512344159,0.461516178,1.144999825,-0.907223915,3.775826729,-2.745823153,-1.252143239,0.294809859,1.689357655,0.807656636,0.487822606,1.388670612,-1.469038362,3.870409104,-0.371378915,2.177687107,1.843171815,-1.193575777,-4.07190111,-3.032564561,2.9736274,-1.138900925,2.247283968,-2.037893858,-0.626191582,-2.228872758,-0.677818195,2.75267072,0.759504126,-6.200203842,1.392731079,-1.615857522,-5.136322853,-0.071364586,-0.182417973,1.439570323,-0.231892398,1.187806772,0.491366958,-0.615821545,1.889860222,0.021889665,-3.939268102,-1.13638954,1.327136829,-0.400109514,-3.317768223,-0.939886622,1.572371095,-0.603837954,-1.027263327,-0.587581053,2.615983083,-0.346107464,1.291496113,-0.717404698,1.335826522,-2.896507811,-3.51777595,-2.370659441,0.529328136,-0.606625868,-2.365535524,0.569432604,0.209081743,-1.350939591,3.374858466,2.769261074,1.697005292,1.072717718,-5.206099893,0.125208628,-0.133330866,-1.230944767,-1.683672854,1.712652857,-0.92721807,2.161908689,3.649563227,1.525700474,-2.580897255,2.03411557,0.809062339
0aeb72e1e54285fe1d3b4d69cc774cf8,0.106948203,-0.337276968,0.21992213,0.859513555,0.171288375,0.425454441,0.709400964,-0.397953833,-1.469852982,0.849643071,0.495686806,-0.618968827,2.215787229,-0.671594149,0.46721989,0.366425874,0.255983132,-1.555998939,0.751935262,-1.492180879,0.833863709,-0.066609125,-0.641043052,-0.972693757,0.226701817,2.831393897,-0.283861079,1.019026657,-0.600601356,0.173298102,1.120886546,0.894652419,-0.467987354,-1.464586496,-2.608557086,3.021223203,2.465698431,1.50825473,0.056094293,1.775511217,-1.349678158,-1.156820287,-0.943514016,-0.479790832,-0.658234268,-1.357549755,0.770883553,-0.468615054,0.247975405,-0.535931254,0.210776115,-0.396283539,0.289090273,-1.503942045,0.416037526,1.357689736,0.837008808,-1.189859378,1.93582492,-2.29590991,0.393240071,-0.306827612,-0.744855423,-0.543776749,-0.509205719,1.215882675,-1.453494681,-1.417539126,0.146462351,1.728916915,-0.28390535,-0.123299614,0.344942568,-0.171597476,0.600223456,-2.76811839,-0.089834746,0.12631945,0.763822589,0.749118549,0.988778482,-0.092029139,0.855097498,-2.269591374,0.261434203,-0.223611529,-0.814248085,-2.444133562,1.460228345,0.373470085,1.401515724,-0.270019436,0.728872184,0.383389214,-0.392372883,-0.286856794,-0.161283764,-0.731228249,1.056631395,-2.166367992,1.571148724,-2.778853687,-0.198584435,-0.201759207,0.857444186,0.999118709,-0.464345285,2.682915221,0.913275907,1.252595042,0.747767544,-0.356618949,0.584676442,1.301081834,1.861271903,-0.922293036,0.030603551,-1.115081199,-1.145849189,-0.866543059,-0.252818422,0.018403288,0.29729244,-1.227941449,0.074239055,-0.445026423,-0.701096454,0.645252335,0.642629291,1.186742153,0.172817213,0.40320418,-1.636295484,0.349901339,0.101243385,-1.986774481,0.009461538,0.029237975,-0.934864218,-3.225377958,0.341490502,0.966840373,-0.029033946,-0.53325462,0.02040975,0.942868197,0.97102316,0.777680422,2.621711667,-1.400164844,0.307539318,-0.367566564,-0.166308261,-0.800822688,0.651034577,-1.356800283,-1.469871682,-0.350156954,-0.389163419,0.119079079,0.507857101,-0.925087797,0.596139405,-1.664314745,0.886364816,0.202891707,0.294459408,-1.34218192,-0.055182683,-0.127967428,1.382124829,0.455200355,1.693040875,2.89039403,-2.764794038,-0.858044631,-0.897847353,0.124839136,-0.435494735,1.935256352,0.01149701,-0.257234982,-0.215722956,1.811900523,0.211910079,-1.184634933,0.125202381,0.048037128,-0.112018178,1.044532505,1.841710197,-0.931968763,-0.164618196,-1.284219182,0.503118648,0.207421165,-0.289082786,-0.771934519,0.482291174,0.350380671,0.105435271,-0.411246796,-0.982609336,0.011292819,-1.047759837,0.582056718,1.375913165,0.679499666,1.403150651,1.144680976,0.465606414,0.279034139,-0.792482127,-0.255645343,-1.393289394,0.59256481,0.211889403,-0.077244203,-0.333882462,-0.817063962,-0.59970592,-1.806119959,-0.305065479,-1.194737707,-0.237872868,-0.098206203,1.272342979,1.201858673,0.710645094,-1.80289994,-2.100865914,0.835876113,0.392202858,1.123905347,-0.138876521,-1.694519475,-0.723196622,-0.374011571,-0.512260976,-1.624118028,-0.839529827,0.280415388,-1.290629771,1.479584992,-0.103897766,-0.859053225,-0.108627012,-0.743275491,-0.865196164,-0.540901484,-0.818165482,0.116514398,0.648580515,-0.85139575,0.03076583,1.492360469,0.273093901,-0.307778309,1.243239379,-0.371393867,2.985671049,1.238118823,-0.221112113,-0.123066273,-0.415559796,-2.287143798,-0.190428476,1.497898865,0.606267346,-0.938034108,0.07579665,-1.273471053,-0.878504292,0.604914796,-0.103841407,-0.372113055,1.274923243,-0.584014349,-0.015868348,0.826140187,0.189278711,-0.110738898,-0.398345421,-0.727663164,-0.127000003,1.860265073,0.37407412,-0.326877953,-1.351388325,-0.392790435,1.443830789,0.473553506,-0.447989188,2.693111527,0.302844666,0.071122185,-0.190384307,0.817750921,0.4975597,0.529177172,-0.735563183,0.61814684,0.519974277,0.650818893,0.982526165,-0.632529893,-1.613130901,0.63787796,0.787747316,0.364329865,-1.80774085,0.167312724,0.816413178,-1.339447304,-1.418290569,-0.407340024,-0.605714428,-1.481040972,1.072758593,0.710537399,0.084781633,0.297722962,-0.335793051,0.157526118,-0.8920831,-0.436317479,-0.313933316,0.079855491,0.555667777,-0.815974962,0.427849107,2.90857492,-0.052083949,-0.857027202,0.578465497,0.73021901,0.280787466,-0.973907943,0.202265932,-2.841272746,-0.462391406,1.167168459,0.287662465,-0.00835685
0aeec48b8fb67093bcb47a844c91d0d4,0.440443779,0.365040288,2.663557677,2.026860141,0.572034277,0.762137717,1.524134147,1.494270367,1.609419121,0.256759777,0.903316469,0.975971781,1.127241826,0.36900843,0.975800582,-0.493968069,0.989138711,2.102458914,-1.041141155,0.210866796,0.864704383,1.068138245,1.045452789,-0.539330196,0.806135843,1.156285919,1.785045091,0.408131861,-0.035826949,0.626214318,-0.924684667,0.044474315,-0.378772448,0.781399348,2.204589651,1.787094184,-1.409962292,0.112557821,-0.133333631,0.466706571,0.436558062,1.632123898,0.319619781,2.789120693,-0.15357477,1.029451348,0.654965599,0.509106206,0.076486808,1.206183412,0.771791036,1.502958296,1.981297421,1.792326108,1.689757361,1.031149071,0.864153007,1.022414985,-0.474466213,0.784866701,1.728494682,-2.425956549,0.46090836,1.210369062,1.078788869,0.561849563,0.667560251,1.025643669,0.136440219,2.601577776,1.106491946,-0.558117908,1.290915717,0.947838068,1.740381678,0.604151272,-0.029184426,-0.905079577,0.292141947,1.496564534,0.936558473,-1.56821547,-0.371077831,1.528347617,0.301980128,0.653781197,-0.311410978,-0.207157002,-0.040837604,-0.144337717,1.364178961,1.099238054,0.618133893,0.158284641,0.252679175,2.103513502,1.094381372,1.159947465,1.586425931,1.0655597,0.162223999,1.057498269,1.161909614,1.213551035,-0.011362771,2.53502155,1.248319251,-0.223773409,1.556203635,0.682570988,2.298661448,-0.490363782,0.328885199,1.515620126,-0.768323528,0.861976461,0.477539669,1.714451207,-0.600299451,0.831853174,3.035206224,0.255152196,-0.825973227,0.128691777,0.099984956,1.92484881,-0.121580801,2.227753005,-0.756214163,0.235085569,1.470960904,0.542412938,-0.991081828,1.156447754,2.247166541,1.799132762,0.759621509,0.072196892,-0.22142047,0.16791219,0.782821284,1.628234197,1.674492982,0.076280513,0.809945875,2.008879453,1.000690486,0.75646736,0.654035623,1.027625549,-0.246583542,1.305986278,0.723839038,0.451175399,0.45140316,1.162897773,1.284780286,0.735052494,0.445998649,-0.410780803,0.755570506,0.077083085,1.389572514,-0.304056926,0.581862714,-0.040973061,0.544053192,1.265002585,0.105077868,2.318912217,0.072072112,1.991181705,0.020533068,0.451819017,0.906643062,2.187753211,0.328096042,0.243845913,0.717914054,0.787064884,1.274827141,0.309900072,-0.697853588,0.597591367,2.056749626,-0.860649824,1.545434333,1.055193381,0.986241664,0.852213746,1.878548571,1.339488235,0.613109881,0.720880501,-0.021779998,1.548724068,-0.222587684,1.224228637,0.422876526,1.593518646,0.896549601,-0.194163677,0.354626489,0.973310503,-0.099520433,-0.281397857,1.035063986,0.072113867,-0.51497567,-0.026168022,0.059075357,0.655074586,1.021772887,2.560483995,1.201863785,0.59313331,0.92156102,0.630104964,1.18386331,-0.501293032,0.175263131,-0.549036558,-0.605279309,0.423164194,1.050025514,0.764576353,4.278592019,-0.212233232,1.0712943,2.052491378,1.289679522,1.251899735,1.669025319,0.06945548,1.582835236,0.648685491,1.035852238,0.553203031,0.996330539,1.130959675,-0.588956954,0.575852307,0.854385842,1.496985701,1.493134951,1.958666826,0.630005421,2.341386826,1.802033525,2.207442359,1.119608663,0.737285566,-0.018878638,0.184059849,0.939393836,2.125727288,1.785945541,1.033153963,-0.329762804,1.229471214,1.292654181,1.057537829,0.570058445,1.557164279,0.302446815,1.788083682,-0.676922132,0.693566798,1.350557724,1.468672582,1.516812741,0.103431886,1.297374854,0.112239711,3.029814676,0.569803609,2.483153117,1.307047195,0.682171325,-0.961422312,-0.904190633,1.929121366,-0.099420349,1.906700102,-0.254234271,1.633396371,-0.015210673,0.081838218,1.420419618,1.112824694,-1.596160593,1.502041318,0.211837772,-0.129009795,1.026005538,0.830795033,1.497185793,1.377628654,1.2869454,1.49508179,0.1823245,1.888494985,1.263992664,-0.607781113,0.559286828,0.750159825,0.313518866,-0.432599374,0.601421496,1.673842116,-0.13582475,0.464412224,0.87926753,1.818527377,0.171217362,0.973991066,0.409720432,0.055256559,-0.25570288,-0.654584278,-0.000346327,1.238254228,0.398823467,-0.568399251,0.71910583,0.956120132,-0.123543717,2.42677559,2.603827159,1.489884436,1.946614606,-0.523641251,0.92632646,0.014961407,0.056895757,0.288897364,1.810130816,-0.466162237,1.890744165,1.342500058,1.30668241,0.331030105,1.677666247,1.19777789
0b162ce62286b5bc182e903c1c51c58d,-1.246720708,-0.521609115,0.391095473,-1.245978458,-1.230028678,-1.545528742,-1.42119688,0.517408356,2.59875811,-2.755835987,-1.561141823,0.49315636,-4.475342127,0.107138319,-1.453766129,-2.534082952,-1.058082963,3.145859469,-3.655199332,1.447816426,-2.219261403,-0.411492732,0.605663255,-0.132578754,-1.174189345,-5.556234685,0.599619173,-2.92766259,-0.375914376,-1.230503056,-4.242981194,-3.006954848,-0.894553626,1.875901573,5.089602864,-5.371734462,-7.062507743,-4.059475067,-1.672993855,-4.227199687,1.356371284,2.042762916,0.51075807,1.766307989,-0.367476768,1.876976157,-2.284711932,-0.170577231,-1.827664717,0.54044097,-1.169354224,0.551867126,-0.29033195,2.756821284,-0.755423306,-2.986252792,-2.230157339,1.579592928,-5.342724661,3.364851959,-0.670153273,-2.927809428,0.287867013,0.55274121,0.40596597,-3.166812558,1.724920963,1.971289764,-1.59944686,-2.370748308,-0.004354013,-1.687154873,-0.94808976,-0.324599113,-1.041588056,4.070611442,-1.310495642,-2.434549927,-2.569458331,-1.545353323,-2.456577417,-2.604282413,-3.289876551,3.963007237,-1.6719146,-0.478421149,-0.228640975,2.797182069,-4.103397889,-2.21470894,-2.803114781,-0.025614971,-2.213957604,-2.012040037,-0.517743194,0.861378583,-0.234114043,0.852739423,-2.008256146,3.367451162,-4.143350205,4.457172103,-0.095403139,-0.058503109,-2.974911671,-1.123666273,0.435564105,-6.487898868,-1.766419842,-3.127956893,-0.811961498,-1.216874011,-2.201526995,-2.530061672,-5.428642968,0.96094562,-1.077630134,2.011220285,0.126278729,0.828504989,1.563089682,-1.249170168,-2.676777852,0.910741556,-1.481323944,0.981474051,-0.281009351,-0.716553647,-3.239059557,-3.376405427,-0.504832503,-1.709470653,0.675783676,-1.086732446,0.276831534,3.672759047,-0.80736496,-1.428198779,0.04674699,4.515126939,-1.377077121,-1.804441737,0.025012984,-0.414471553,-0.797073585,-1.457659752,-2.331889189,-2.204540125,-5.62206924,1.968620806,-2.197487367,0.344192708,-0.498281259,0.396774936,-2.248706351,1.979488312,2.296686465,-0.179414988,-0.348116594,-2.001323688,-1.725483707,0.247173053,-1.335369572,1.314023374,-2.544021312,-1.839943831,-1.506944268,2.017924623,-1.233931596,0.736176495,-3.878409822,-0.591317749,-4.490902325,-6.28549725,4.301170348,1.954933692,0.453858682,-1.41054788,-0.033052382,-4.254734647,-0.383858792,-0.710532114,-1.641628824,-4.207554405,-0.082209453,-0.018438149,-0.368681898,-0.631387806,-0.394305587,-2.595622483,-3.186120042,1.381663814,-0.618605036,1.48149392,-2.366511307,-0.465895004,-1.109729033,0.965673424,-1.971869484,-0.737822374,-0.872474069,-0.846600329,0.647081589,-0.627583468,0.361739357,-2.717911814,-3.057832132,-2.564935596,-4.392328443,-3.535361551,-2.228146692,-1.386508145,0.841871497,1.18445419,2.097583344,-1.985227921,-1.047461597,-0.763862146,0.16659052,-0.391758121,-0.213794904,1.34985695,-1.384852986,1.060917901,-0.125163052,-0.616513851,-0.112477481,-3.781492537,-1.830240131,3.530548288,3.43223381,-1.884695461,-0.752400176,-3.414189117,0.149335987,2.157225718,0.725955575,-0.30653685,0.322140296,2.445699146,-0.4100752,-1.454469795,1.598671483,-2.847838739,0.012240839,1.751276137,-0.704234935,1.887139102,1.649793822,1.381153549,0.996616883,-1.018696582,-2.625970997,0.267413993,-0.711640656,-2.325759589,-0.418838845,0.009754837,-3.948936867,0.257418449,-5.738130827,-2.802639333,-0.57770975,0.102975719,-0.428016854,4.196083946,-1.66058095,-3.573510804,-1.387682203,1.496536025,-0.295934745,0.92512648,1.251912196,-2.455227296,1.311160384,-0.281694427,-1.646182083,0.711450234,-0.811904488,-3.748030146,-2.564651417,0.35346887,-0.811525876,1.485659217,-1.429646444,-3.414320377,-2.118191866,-0.794953815,2.183054598,0.203302058,-5.391887055,-1.041545935,-0.431681941,-6.391278759,-1.117596262,-0.859352325,0.169131806,-1.747945715,-1.268215531,-1.131067051,0.047281465,-0.977842994,-1.30358939,-3.110117103,-2.749770738,0.306968165,1.758046963,-2.954950829,-2.36696209,-0.693893989,1.729795954,-1.353005441,-2.175089609,2.52369243,1.27031254,0.099199387,0.004582001,1.233466982,-3.593852781,-3.277799318,-1.580346679,-0.937353771,-0.493574574,-2.213981265,0.778568918,0.167207983,-0.996307291,0.447669688,-0.245756094,1.299386125,-0.543033988,-7.139963947,-0.555033842,0.108677349,-2.45026377,-2.508609181,-0.425489771,-0.093450959,-0.227535861,4.818822549,0.487945726,-3.254009069,-0.562537364,-0.417704234
0b21d80d1f89bc30d915fff4b7741731,-1.376753469,0.220769307,1.498258109,-1.457209616,-1.699684337,-0.844038401,-0.606138735,1.206959754,-1.366433296,-0.008710136,-0.79661187,0.500219092,-1.047116729,-0.906923126,-0.815221088,0.891617475,-0.751051352,-0.144855077,-1.079375915,-0.460839675,0.639542384,-0.333605758,-0.155513209,-0.070674273,0.255865743,-1.194369156,-0.8498049,-0.613907424,-0.416150586,0.474386976,0.046948311,-0.88899918,-0.665200619,-0.431412811,2.220462582,-1.146673736,-0.849740712,-0.94062538,1.043302207,-1.119846644,0.832567925,-0.031094,1.221172273,0.740633065,-0.586140255,0.61572064,0.292930538,0.589090623,0.090323499,0.17928724,0.350775965,-0.469723429,0.06662697,2.659318835,-0.241920569,-1.641807925,0.301402513,-0.284492146,0.056956824,0.588472759,-1.164336113,-0.38965389,0.182224507,1.008019306,-0.937719666,0.301807162,1.927484466,0.894640701,0.007962554,-0.0409488,0.56861663,0.221921258,-1.166135677,-0.350160021,-0.524639122,-0.180196418,0.234043743,-0.341721775,-0.265295085,0.50203646,1.153048287,0.660215024,-0.6544344,-0.119883999,0.151008707,0.061626125,-0.119042981,0.141628424,-0.839503551,-0.96261006,-1.050218236,0.142235147,-0.946519816,0.632841819,0.070255239,0.055541826,0.668083841,0.643218108,-0.110457908,0.783214532,-0.363453178,0.778998168,-0.358638494,0.292287581,-1.312294078,0.67248708,1.32348874,0.401394898,-0.544219268,0.100815944,-2.037803225,0.042831256,-1.36030593,0.791159103,-1.677212396,0.042047066,-0.513071983,0.678692061,0.102603407,-0.428287262,1.025267793,-1.017052048,-0.774638598,-1.229070437,-0.293785582,-0.109382842,0.234845596,0.394665061,-0.454416921,-0.609713324,-0.156606754,-0.343195772,-0.060654981,0.014800404,0.14855438,-0.369347173,-0.196196741,-0.519589294,0.391038469,0.682925539,-0.705331375,-0.229571238,0.321446405,0.107594878,-0.077283177,1.355558468,-0.690815644,-0.12827208,-0.213489413,-0.418285923,0.168040884,-0.829751872,-1.387447707,-0.192154975,0.066647128,0.75729736,-0.014514381,-0.468288791,-0.582012399,-0.185467075,0.527395462,2.219513659,-0.701785566,0.260597681,-0.785094314,-0.21927858,-0.12204687,2.430561537,-1.501940171,0.874096357,0.215584109,1.083709516,0.530673854,0.363452361,0.845574312,0.403392479,0.488185105,-2.59070684,-1.427065242,-0.742365044,0.023403281,-0.332557677,0.414080004,-0.203398131,0.033337285,-0.876057069,0.434600133,-0.093305139,0.108779253,-0.703924323,0.383133735,-0.585735155,-0.14032134,0.229280916,0.125456207,-1.558075206,0.303442761,1.639331453,0.400893619,0.767571075,0.025680542,-0.632331099,-0.39060069,-0.808208007,-0.181946317,-0.387020207,0.548134712,-1.737218437,-1.703131483,-0.060344184,0.025920692,-0.220462713,1.086524581,-0.057890455,-0.313286451,-1.619735673,0.073320939,-0.122973516,0.237218345,0.361797288,0.179005346,0.731341163,-0.943702146,0.629751148,0.053788778,0.11902194,-0.210024998,-0.357830773,0.466018093,1.008594269,0.666674715,-0.394251144,0.995571855,0.057273797,0.059925239,1.085028963,0.982291171,0.124686933,0.563997533,0.056295326,-0.891434313,-0.680842789,1.558937122,-0.54210545,-0.400235752,0.677552806,-0.256048798,-0.962670227,0.036041596,0.767054683,-1.059251046,-0.514242512,-0.150337553,-0.441964746,0.20281768,-0.637107545,-0.171723641,-0.216652045,-0.83315634,0.787726128,-0.272297115,0.427776517,1.357749476,-0.48947234,-0.482461798,-0.139777137,-0.155446161,0.738747989,-0.124232699,-0.570568938,-0.630313047,1.21254751,-0.440545731,0.79919479,-0.467856029,-0.341706708,0.577996753,0.798987577,-1.566887618,0.088517645,0.687370056,1.51558152,0.443015015,-0.676074216,-0.19082217,-0.627365213,-0.484825789,0.775806276,0.776287715,-0.162149929,-0.576674689,1.087525132,-1.47984252,-1.450648947,-0.205016968,-0.138514592,0.112712382,-0.795559443,1.466966784,-0.377375818,-0.099123363,0.936000195,-0.461737256,-1.106798386,0.544841835,1.619064265,-1.568449626,-0.613197973,0.434187115,0.66782849,-0.777815587,-0.277812627,0.198282155,-0.731703611,-0.699329432,1.197005761,-0.808428344,2.512212187,0.256977392,-0.124603366,-1.252072228,0.147319179,-0.139576459,0.718134621,-0.02176861,-0.682182898,0.28067926,0.91625409,0.054760902,-0.425346017,-0.981808046,0.052609791,-0.108898579,1.090529652,1.357283103,0.059829923,0.335224592,1.0701451,0.729498017,0.189354226,0.437977901,-0.941469173,1.338278844,0.27398514
0b820f96dda41afd6d433a7b1234de94,2.115519193,1.117136037,-0.509861063,1.618387742,2.310236169,1.613789112,1.183756882,0.119322778,2.074425045,1.093684493,1.521311348,0.797097207,1.328168072,1.963353192,1.513135362,0.758682493,1.506471433,1.097429784,2.219338823,1.841524947,0.482320999,1.255582631,1.241534316,1.683924993,0.86398592,1.317964519,1.459490837,1.438855838,1.716321391,0.774323521,1.33646212,1.751835434,1.968345002,1.654052932,-0.3958066,1.0710467,1.861986526,1.657372031,0.606335524,1.650537341,0.849782393,1.096581999,0.532398249,0.098770788,1.878597154,0.839791342,0.784477309,0.842109898,1.17628521,0.939193053,0.817502491,1.286311222,0.65946172,-0.763139286,0.938453129,1.932211728,0.706039435,1.434899007,1.051615322,1.091910599,1.569581818,2.306850361,1.180530544,0.371595929,1.750497658,0.725806315,0.046322885,0.650575997,1.227199689,0.301208601,0.652365251,1.335353035,1.705591112,1.317562098,1.087566569,1.75289602,1.163935642,1.765832483,1.274666418,0.401264681,0.066955429,1.304774001,1.711430087,1.380529846,1.058871371,1.129802808,1.622816816,1.699167377,1.638674968,1.957729403,1.410239974,0.951854495,1.670837673,0.752074068,1.259326399,0.74400579,0.56867683,0.670517325,0.755257155,0.858474062,1.227787114,0.96146908,1.268296495,0.799608824,2.073995675,-0.050980472,0.126816355,0.607979218,1.092332396,0.825571714,1.959284485,1.470219557,2.053195047,0.097974922,2.35230929,1.210760274,1.532954339,0.557119092,1.611410027,1.521317623,-0.203936141,1.932325299,2.006896475,2.348886013,1.474794273,0.91746803,1.301074194,0.31523866,1.711999029,1.454699283,0.980148132,1.318929246,1.910607729,0.923740159,0.567006149,1.415600423,1.236839539,1.638495982,1.253242955,1.355625735,1.528134631,0.847201715,0.628036136,1.305522976,1.126777482,-0.348621169,1.344399807,1.0480195,0.807240757,1.566617571,1.214251903,1.591496857,2.109404978,1.464444984,1.006358269,0.697007962,1.217463177,1.490943292,1.660602126,1.526874689,0.643267612,-0.108189368,1.300481,1.515077713,1.527275805,1.432782163,1.192917725,-0.491793109,2.325676355,0.079135578,0.893293314,-0.072487884,0.630836808,0.416573941,0.952227934,0.57584874,1.039014191,3.027618691,2.168229792,1.266955114,0.935932204,1.495876055,1.256521938,0.958970099,0.680193888,2.359714226,0.553162871,1.073871799,0.991099415,1.375432493,0.193270658,1.505567324,1.268361401,1.171853629,1.139965046,1.941627498,1.210448511,-0.031738471,0.813328569,0.270849954,1.023329438,1.878810776,1.661817849,1.595038419,1.636772114,1.556897945,0.397304672,2.390126119,2.375151985,1.14662099,1.194184967,1.230274332,0.413895611,0.681494844,1.439560007,2.162380804,0.961058216,1.234451818,0.881125303,1.341452906,1.238195093,1.274429776,2.18606164,0.958919523,1.019879119,1.032307737,0.050007983,1.40539323,0.555753554,0.352174207,0.856954943,1.087652922,0.084826522,1.047143427,0.853894163,0.679541564,0.465497981,1.125483669,0.734218088,1.239818913,2.236022676,1.565761919,0.226537201,0.997741821,1.186624922,0.44066358,1.333566061,1.449776013,0.941654151,0.248495624,1.874272063,1.440707041,1.301299465,1.722254625,0.89343921,0.900753748,0.886389835,1.24522769,1.760126637,0.485029709,0.607526284,0.483309521,0.247556942,1.234970826,1.630728297,1.305473347,1.642263802,0.333698493,0.916725993,1.454859992,1.300310477,0.657770133,1.411927486,0.60827009,0.807232107,1.452287213,-0.000219551,0.498392154,2.208705091,1.363730671,1.037995058,-0.275040487,1.097527179,1.366633489,1.525200698,0.956670368,1.585357056,0.800820479,0.607177371,1.17154536,1.890138732,0.053130033,2.353461058,1.873763275,1.111149101,1.166258743,0.850017827,1.325720924,-0.150501547,1.056823583,1.459469574,0.021346445,1.186351693,2.13169208,0.600573702,0.081797664,2.591023034,1.73308798,0.693426369,0.31511457,2.213826104,1.333978304,0.780964185,1.545345525,1.989679892,0.276766343,1.85408166,-0.201513001,1.013838542,1.446036053,2.155742815,0.805242625,1.354213035,0.940122391,1.280566207,1.594549688,1.186363444,-0.020806526,0.447821191,1.334748225,1.385025188,0.897291855,1.142680956,0.702662059,0.254162849,1.06420513,0.520230814,0.863232792,0.231416178,1.302167204,0.717915907,1.663028147,-0.138239526,0.785883915
